{"learner":{"attributes":{"scikit_learn":"{\"_estimator_type\": \"classifier\"}"},"feature_names":["avg_word_len","type_token_ratio","avg_sentence_len","comma_freq","semicolon_freq","punctuation_ratio","uppercase_ratio","digit_ratio","flesch_reading_ease","gunning_fog"],"feature_types":["float","float","float","float","float","float","float","float","float","float"],"gradient_booster":{"model":{"cats":{"enc":[],"feature_segments":[],"sorted_idx":[]},"gbtree_model_param":{"num_parallel_tree":"1","num_trees":"200"},"iteration_indptr":[0,1,2,3,4,5,6,7,8,9,10,11,12,13,14,15,16,17,18,19,20,21,22,23,24,25,26,27,28,29,30,31,32,33,34,35,36,37,38,39,40,41,42,43,44,45,46,47,48,49,50,51,52,53,54,55,56,57,58,59,60,61,62,63,64,65,66,67,68,69,70,71,72,73,74,75,76,77,78,79,80,81,82,83,84,85,86,87,88,89,90,91,92,93,94,95,96,97,98,99,100,101,102,103,104,105,106,107,108,109,110,111,112,113,114,115,116,117,118,119,120,121,122,123,124,125,126,127,128,129,130,131,132,133,134,135,136,137,138,139,140,141,142,143,144,145,146,147,148,149,150,151,152,153,154,155,156,157,158,159,160,161,162,163,164,165,166,167,168,169,170,171,172,173,174,175,176,177,178,179,180,181,182,183,184,185,186,187,188,189,190,191,192,193,194,195,196,197,198,199,200],"tree_info":[0,0,0,0,0,0,0,0,0,0,0,0,0,0,0,0,0,0,0,0,0,0,0,0,0,0,0,0,0,0,0,0,0,0,0,0,0,0,0,0,0,0,0,0,0,0,0,0,0,0,0,0,0,0,0,0,0,0,0,0,0,0,0,0,0,0,0,0,0,0,0,0,0,0,0,0,0,0,0,0,0,0,0,0,0,0,0,0,0,0,0,0,0,0,0,0,0,0,0,0,0,0,0,0,0,0,0,0,0,0,0,0,0,0,0,0,0,0,0,0,0,0,0,0,0,0,0,0,0,0,0,0,0,0,0,0,0,0,0,0,0,0,0,0,0,0,0,0,0,0,0,0,0,0,0,0,0,0,0,0,0,0,0,0,0,0,0,0,0,0,0,0,0,0,0,0,0,0,0,0,0,0,0,0,0,0,0,0,0,0,0,0,0,0,0,0,0,0,0,0],"trees":[{"base_weights":[4.0995097E-4,3.4979632E-1,-7.023998E-1,5.6746113E-1,-6.910428E-1,-3.4987363E-1,-1.1180286E0,7.5794333E-1,-1.1009508E-1,-4.437302E-1,-1.2821164E0,-1.7385384E-1,-9.6206933E-1,-9.102103E-1,-1.4102725E0,9.3719053E-1,2.256857E-1,7.3245794E-1,-2.1243952E-1,-1.8953602E-1,-1.059653E0,-1.0373362E0,-1.6461778E0,1.1716317E-1,-4.2766458E-1,-4.8561096E-1,-1.1634153E0,-7.422331E-1,-1.3734094E0,-1.2173767E0,-1.6082159E0,1.1208857E0,5.640436E-1,4.4787595E-1,-2.131531E-1,1.1207358E0,5.725101E-1,2.657068E-1,-3.9305487E-1,1.7675076E-1,-4.5398805E-1,2.9367605E-1,-1.1563458E0,-7.278834E-1,-1.335206E0,-2.5655186E-2,-1.6685361E0,5.012784E-1,-1.6145897E-1,-3.2940134E-1,-1.0482869E0,-2.4162026E-1,-1.3780247E0,-1.4833052E-1,-1.2209922E0,3.0019453E-1,-8.1587815E-1,-1.2390376E0,-1.8454984E-1,-6.188246E-1,-1.3335227E0,-1.5316598E0,-1.8333635E0,1.2276448E-1,7.132668E-2,9.213554E-2,3.9179765E-2,1.0554991E-1,3.3124436E-2,-1.3258057E-2,-1.1380875E-1,1.4249019E-2,1.3476467E-1,1.6304608E-2,7.858624E-2,4.8485752E-2,-2.9167702E-2,-1.9105699E-2,-6.849875E-2,7.974117E-2,-7.700905E-3,-2.94037E-2,-9.8243885E-2,6.58463E-2,-1.0801577E-1,-1.2876391E-1,-6.4019606E-2,-2.5574914E-3,-9.2269406E-2,8.668601E-3,-1.425278E-1,-1.2258805E-1,-1.7620072E-1,9.221222E-2,2.5900006E-2,-4.540846E-3,-6.419044E-2,1.3646248E-3,-5.245438E-2,4.3067858E-3,-1.1441564E-1,-6.5612584E-2,1.972267E-2,-2.8752437E-2,-1.4385551E-1,3.991903E-2,-9.541305E-2,-1.0427751E-1,-1.4115928E-1,1.1052374E-1,1.0620113E-2,-4.628781E-2,-1.0142439E-1,-6.137081E-2,-1.358227E-1,-2.2191426E-2,-8.9351386E-2,-6.632869E-2,-1.4356883E-1,-1.5439081E-1,-7.0083127E-3,-1.8912628E-1,-9.541305E-2],"categories":[],"categories_nodes":[],"categories_segments":[],"categories_sizes":[],"default_left":[0,0,0,0,0,0,0,0,0,0,0,0,0,0,0,0,0,0,0,0,0,0,0,0,0,0,0,0,0,0,0,0,0,0,0,0,0,0,0,0,0,0,0,0,0,0,0,0,0,0,0,0,0,0,0,0,0,0,0,0,0,0,0,0,0,0,0,0,0,0,0,0,0,0,0,0,0,0,0,0,0,0,0,0,0,0,0,0,0,0,0,0,0,0,0,0,0,0,0,0,0,0,0,0,0,0,0,0,0,0,0,0,0,0,0,0,0,0,0,0,0,0,0],"id":0,"left_children":[1,3,5,7,9,11,13,15,17,19,21,23,25,27,29,31,33,35,37,39,41,43,45,47,49,51,53,55,57,59,61,63,65,67,69,71,73,75,77,79,81,83,85,87,89,-1,91,93,95,97,99,101,103,105,107,109,111,113,-1,115,117,119,121,-1,-1,-1,-1,-1,-1,-1,-1,-1,-1,-1,-1,-1,-1,-1,-1,-1,-1,-1,-1,-1,-1,-1,-1,-1,-1,-1,-1,-1,-1,-1,-1,-1,-1,-1,-1,-1,-1,-1,-1,-1,-1,-1,-1,-1,-1,-1,-1,-1,-1,-1,-1,-1,-1,-1,-1,-1,-1,-1,-1],"loss_changes":[1.801738E3,1.1107443E3,3.565973E2,5.232943E2,1.2340811E2,1.4204765E2,6.6598145E1,3.016963E2,7.694123E1,9.365303E1,2.054013E1,7.585265E1,2.7687256E1,5.0023254E1,1.5708313E1,1.6161035E2,7.795684E1,5.362217E0,6.874331E1,4.130154E1,2.3227478E1,1.3037628E1,2.6374817E0,5.1331165E1,3.309755E1,1.9089369E1,1.187616E1,3.7371094E1,8.713837E0,1.5751007E1,1.0741577E0,6.810327E1,4.7819E1,3.7242012E1,1.9902576E1,5.8369865E0,6.031893E0,2.6832485E1,3.391153E1,2.8276184E1,2.062378E1,6.956124E0,1.0251938E1,1.0476002E1,9.888275E0,0E0,1.8502197E0,2.0313152E1,1.5487996E1,3.1797432E1,7.8439713E0,1.3092014E1,8.365059E-1,5.7686243E0,5.154846E0,4.980444E0,3.1178375E1,9.454407E0,0E0,4.229847E0,1.2662384E1,3.0095215E0,8.465271E-1,0E0,0E0,0E0,0E0,0E0,0E0,0E0,0E0,0E0,0E0,0E0,0E0,0E0,0E0,0E0,0E0,0E0,0E0,0E0,0E0,0E0,0E0,0E0,0E0,0E0,0E0,0E0,0E0,0E0,0E0,0E0,0E0,0E0,0E0,0E0,0E0,0E0,0E0,0E0,0E0,0E0,0E0,0E0,0E0,0E0,0E0,0E0,0E0,0E0,0E0,0E0,0E0,0E0,0E0,0E0,0E0,0E0,0E0,0E0,0E0],"parents":[2147483647,0,0,1,1,2,2,3,3,4,4,5,5,6,6,7,7,8,8,9,9,10,10,11,11,12,12,13,13,14,14,15,15,16,16,17,17,18,18,19,19,20,20,21,21,22,22,23,23,24,24,25,25,26,26,27,27,28,28,29,29,30,30,31,31,32,32,33,33,34,34,35,35,36,36,37,37,38,38,39,39,40,40,41,41,42,42,43,43,44,44,46,46,47,47,48,48,49,49,50,50,51,51,52,52,53,53,54,54,55,55,56,56,57,57,59,59,60,60,61,61,62,62],"right_children":[2,4,6,8,10,12,14,16,18,20,22,24,26,28,30,32,34,36,38,40,42,44,46,48,50,52,54,56,58,60,62,64,66,68,70,72,74,76,78,80,82,84,86,88,90,-1,92,94,96,98,100,102,104,106,108,110,112,114,-1,116,118,120,122,-1,-1,-1,-1,-1,-1,-1,-1,-1,-1,-1,-1,-1,-1,-1,-1,-1,-1,-1,-1,-1,-1,-1,-1,-1,-1,-1,-1,-1,-1,-1,-1,-1,-1,-1,-1,-1,-1,-1,-1,-1,-1,-1,-1,-1,-1,-1,-1,-1,-1,-1,-1,-1,-1,-1,-1,-1,-1,-1,-1],"split_conditions":[1.2418085E-2,2.479759E-1,1.9804135E-2,1.4637464E0,3.8067594E-1,2.633512E-1,5.366947E0,2.2931572E-4,2.3169746E-6,2.8543665E0,1.1952385E1,9.4197436E-5,4.708985E-5,2.7405712E-1,2.8546574E-2,4.2879794E-4,4.7003423E-4,4.697041E-5,4.6838406E-5,2.3431276E-4,9.1599753E-7,1.6773844E0,1.6392194E-1,2.321155E-4,6.4278193E0,5.152945E0,3.3414364E-7,2.3169746E-6,1.3055942E1,9.246498E-5,1.1241377E1,1.9960428E0,4.0516356E-6,3.3414364E-7,3.3775823E0,2.9623215E-3,1.4158958E-4,9.061015E0,2.2277324E0,4.6626566E-5,8.775729E0,7.974938E0,1.0332381E-2,2.5213674E-7,1.5840118E-7,-2.5655186E-2,4.5545636E-5,4.43867E-8,5.152945E0,1.867317E-4,1.5840118E-7,1.5832696E0,1.5840118E-7,9.969202E0,3.5208377E-1,3.2366568E-1,4.718094E-5,9.439305E-5,-1.8454984E-1,3.3749716E0,1.5330447E-7,3.4863663E1,8.029214E-4,1.2276448E-1,7.132668E-2,9.213554E-2,3.9179765E-2,1.0554991E-1,3.3124436E-2,-1.3258057E-2,-1.1380875E-1,1.4249019E-2,1.3476467E-1,1.6304608E-2,7.858624E-2,4.8485752E-2,-2.9167702E-2,-1.9105699E-2,-6.849875E-2,7.974117E-2,-7.700905E-3,-2.94037E-2,-9.8243885E-2,6.58463E-2,-1.0801577E-1,-1.2876391E-1,-6.4019606E-2,-2.5574914E-3,-9.2269406E-2,8.668601E-3,-1.425278E-1,-1.2258805E-1,-1.7620072E-1,9.221222E-2,2.5900006E-2,-4.540846E-3,-6.419044E-2,1.3646248E-3,-5.245438E-2,4.3067858E-3,-1.1441564E-1,-6.5612584E-2,1.972267E-2,-2.8752437E-2,-1.4385551E-1,3.991903E-2,-9.541305E-2,-1.0427751E-1,-1.4115928E-1,1.1052374E-1,1.0620113E-2,-4.628781E-2,-1.0142439E-1,-6.137081E-2,-1.358227E-1,-2.2191426E-2,-8.9351386E-2,-6.632869E-2,-1.4356883E-1,-1.5439081E-1,-7.0083127E-3,-1.8912628E-1,-9.541305E-2],"split_indices":[5,0,5,9,0,0,2,4,7,2,8,4,4,0,5,7,7,4,4,7,7,2,2,7,2,2,7,7,8,7,2,2,4,7,2,5,4,8,9,4,8,2,5,4,7,0,4,4,2,7,7,9,7,8,0,9,4,7,0,9,4,8,4,0,0,0,0,0,0,0,0,0,0,0,0,0,0,0,0,0,0,0,0,0,0,0,0,0,0,0,0,0,0,0,0,0,0,0,0,0,0,0,0,0,0,0,0,0,0,0,0,0,0,0,0,0,0,0,0,0,0,0,0],"split_type":[0,0,0,0,0,0,0,0,0,0,0,0,0,0,0,0,0,0,0,0,0,0,0,0,0,0,0,0,0,0,0,0,0,0,0,0,0,0,0,0,0,0,0,0,0,0,0,0,0,0,0,0,0,0,0,0,0,0,0,0,0,0,0,0,0,0,0,0,0,0,0,0,0,0,0,0,0,0,0,0,0,0,0,0,0,0,0,0,0,0,0,0,0,0,0,0,0,0,0,0,0,0,0,0,0,0,0,0,0,0,0,0,0,0,0,0,0,0,0,0,0,0,0],"sum_hessian":[7.3354966E3,4.900048E3,2.4354487E3,4.0529353E3,8.4711255E2,1.3187549E3,1.1166937E3,3.163467E3,8.894682E2,5.984601E2,2.4865245E2,1.0252554E3,2.9349957E2,6.5501733E2,4.6167633E2,2.3659355E3,7.9753156E2,9.567389E1,7.937943E2,4.245529E2,1.7390723E2,1.5098535E2,9.76671E1,4.7787115E2,5.473842E2,8.819936E1,2.0530022E2,4.82605E2,1.7241232E2,2.3744067E2,2.2423567E2,1.5841005E3,7.818351E2,5.294454E2,2.680862E2,2.616083E1,6.951306E1,2.175086E2,5.762857E2,1.7814279E2,2.464101E2,1.1460935E1,1.6244629E2,7.574183E1,7.524353E1,1.7440553E0,9.592304E1,2.0056636E2,2.7730478E2,4.7388474E2,7.349947E1,7.026051E1,1.7938854E1,1.1211784E1,1.9408844E2,3.1642145E1,4.5096286E2,1.3703291E2,3.5379406E1,3.961497E1,1.978257E2,1.7315977E2,5.1075905E1,1.2537266E3,3.303739E2,2.5288802E2,5.28947E2,8.3963806E1,4.4548154E2,2.4765585E2,2.0430363E1,5.232166E0,2.0928663E1,2.4416775E1,4.5096287E1,1.5621753E2,6.1291084E1,3.415857E2,2.3470001E2,5.1075905E1,1.2706689E2,1.9035118E2,5.6058918E1,9.467729E0,1.993206E0,1.2831264E2,3.413365E1,1.66931E1,5.904873E1,4.4847136E0,7.075881E1,1.9184608E1,7.6738434E1,7.2253716E1,1.2831264E2,2.2423567E2,5.306911E1,1.7216318E2,3.0172156E2,5.979618E0,6.751985E1,3.587771E1,3.4382805E1,1.2457538E0,1.66931E1,6.976221E0,4.235563E0,1.0364671E2,9.044173E1,5.232166E0,2.640998E1,1.634429E2,2.8751996E2,2.292187E1,1.14111046E2,1.6942251E1,2.2672718E1,2.7157433E1,1.7066826E2,1.7166487E2,1.4949045E0,4.684034E1,4.235563E0],"tree_param":{"num_deleted":"0","num_feature":"10","num_nodes":"123","size_leaf_vector":"1"}},{"base_weights":[4.4216136E-3,4.4945595E-1,-1.1161367E0,7.303604E-1,-2.343318E-1,-7.1524996E-1,-1.4795495E0,8.763943E-1,-1.3441294E-1,5.3582072E-2,-7.719859E-1,-5.0773704E-1,-1.2582551E0,-8.088214E-1,-1.5232788E0,1.0790248E0,5.29189E-1,6.906326E-2,-8.0879444E-1,3.7066132E-1,-5.218727E-1,2.88674E-1,-8.5894185E-1,-3.5675645E-1,-1.0966053E0,-1.1165967E0,-1.5238714E0,-1.4467983E-1,-1.2357213E0,-1.3932294E0,-1.6989813E0,1.166163E0,6.849109E-1,7.7946997E-1,2.1010631E-1,2.9137874E-1,-3.649776E-1,-5.671464E-1,-1.330329E0,1.1428865E0,2.5317955E-1,1.7933968E-1,-6.5565336E-1,5.7659847E-1,-5.3476906E-1,-5.50075E-1,-1.0562942E0,-3.984849E-2,-5.9505785E-1,5.260304E-2,-1.1827683E0,-9.0875185E-1,-1.3828626E0,-1.0907568E0,-1.6275564E0,2.3089834E-1,-8.6102587E-1,-9.004916E-1,-1.5621048E0,-1.2247143E0,-1.6111742E0,-1.7214091E0,-1.305277E0,1.3073187E-1,9.8272525E-2,8.4542595E-2,3.0566677E-2,9.4548546E-2,5.472454E-2,3.2400478E-2,-2.5235582E-2,8.2019E-2,1.1194984E-2,9.824119E-2,-4.634539E-2,-3.2463014E-2,-1.0040759E-1,2.4436522E-2,-1.3889675E-1,1.299899E-1,4.4381958E-2,3.785544E-2,-3.6573034E-2,4.9794346E-2,-5.6988884E-2,-4.3113932E-2,-9.4000615E-2,7.941095E-2,-8.869675E-2,2.6909113E-2,-8.937255E-2,-2.0575417E-2,-8.444961E-2,-9.530294E-2,-1.4820477E-1,2.2645213E-2,-5.4992724E-2,-4.5327667E-2,-8.916217E-2,5.9200075E-2,-8.103745E-2,-9.712212E-2,-1.494637E-1,-5.3225737E-2,-1.04830086E-1,-7.050126E-2,-1.4798605E-1,-4.443398E-2,-1.4543857E-1,-8.758579E-2,-1.6817877E-1,5.4359645E-2,-6.58811E-2,-2.3816256E-2,-1.3774139E-1,-5.939127E-2,-1.463613E-1,-1.6522168E-1,-7.884199E-2,-1.091236E-1,-1.4437616E-1,-2.0852488E-2,-1.6199522E-1,-1.73036E-1,-7.056553E-2,-1.7715883E-2,-1.5792355E-1],"categories":[],"categories_nodes":[],"categories_segments":[],"categories_sizes":[],"default_left":[0,0,0,0,0,0,0,0,0,0,0,0,0,0,0,0,0,0,0,0,0,0,0,0,0,0,0,0,0,0,0,0,0,0,0,0,0,0,0,0,0,0,0,0,0,0,0,0,0,0,0,0,0,0,0,0,0,0,0,0,0,0,0,0,0,0,0,0,0,0,0,0,0,0,0,0,0,0,0,0,0,0,0,0,0,0,0,0,0,0,0,0,0,0,0,0,0,0,0,0,0,0,0,0,0,0,0,0,0,0,0,0,0,0,0,0,0,0,0,0,0,0,0,0,0,0,0],"id":1,"left_children":[1,3,5,7,9,11,13,15,17,19,21,23,25,27,29,31,33,35,37,39,41,43,45,47,49,51,53,55,57,59,61,63,65,67,69,71,73,75,77,79,81,83,85,87,89,91,93,95,97,99,101,103,105,107,109,111,113,115,117,119,121,123,125,-1,-1,-1,-1,-1,-1,-1,-1,-1,-1,-1,-1,-1,-1,-1,-1,-1,-1,-1,-1,-1,-1,-1,-1,-1,-1,-1,-1,-1,-1,-1,-1,-1,-1,-1,-1,-1,-1,-1,-1,-1,-1,-1,-1,-1,-1,-1,-1,-1,-1,-1,-1,-1,-1,-1,-1,-1,-1,-1,-1,-1,-1,-1,-1],"loss_changes":[3.6727344E3,1.0126749E3,3.0394067E2,4.719995E2,2.3776163E2,1.11745575E2,3.0947754E1,2.2434521E2,7.425157E1,1.8285017E2,4.9649292E1,6.3914078E1,8.6492E0,1.9464825E1,2.114209E1,6.8496826E1,9.4080505E1,4.0276516E1,1.5050278E1,5.8317818E1,3.3517815E1,1.0108079E1,2.9609924E1,4.3563507E1,1.46297E1,8.879166E0,2.3984528E0,7.7971396E0,3.1933289E0,1.9945435E1,1.5771484E0,4.1465576E1,2.2129654E1,2.4965729E1,2.7478634E1,2.6081795E1,1.9223534E1,8.939644E0,3.9373322E0,8.7548065E0,4.3746323E1,1.4088233E1,1.8697037E1,1.0606786E1,3.4801052E0,1.9612652E1,1.1826172E1,3.3919617E1,1.34448395E1,5.7017646E0,7.5802765E0,4.99942E0,4.1097717E0,4.286108E0,1.5010986E0,5.732152E0,2.8644018E0,3.118946E0,8.7623596E-2,8.386932E0,2.8272705E0,2.475586E0,8.212193E0,0E0,0E0,0E0,0E0,0E0,0E0,0E0,0E0,0E0,0E0,0E0,0E0,0E0,0E0,0E0,0E0,0E0,0E0,0E0,0E0,0E0,0E0,0E0,0E0,0E0,0E0,0E0,0E0,0E0,0E0,0E0,0E0,0E0,0E0,0E0,0E0,0E0,0E0,0E0,0E0,0E0,0E0,0E0,0E0,0E0,0E0,0E0,0E0,0E0,0E0,0E0,0E0,0E0,0E0,0E0,0E0,0E0,0E0,0E0,0E0,0E0,0E0,0E0,0E0],"parents":[2147483647,0,0,1,1,2,2,3,3,4,4,5,5,6,6,7,7,8,8,9,9,10,10,11,11,12,12,13,13,14,14,15,15,16,16,17,17,18,18,19,19,20,20,21,21,22,22,23,23,24,24,25,25,26,26,27,27,28,28,29,29,30,30,31,31,32,32,33,33,34,34,35,35,36,36,37,37,38,38,39,39,40,40,41,41,42,42,43,43,44,44,45,45,46,46,47,47,48,48,49,49,50,50,51,51,52,52,53,53,54,54,55,55,56,56,57,57,58,58,59,59,60,60,61,61,62,62],"right_children":[2,4,6,8,10,12,14,16,18,20,22,24,26,28,30,32,34,36,38,40,42,44,46,48,50,52,54,56,58,60,62,64,66,68,70,72,74,76,78,80,82,84,86,88,90,92,94,96,98,100,102,104,106,108,110,112,114,116,118,120,122,124,126,-1,-1,-1,-1,-1,-1,-1,-1,-1,-1,-1,-1,-1,-1,-1,-1,-1,-1,-1,-1,-1,-1,-1,-1,-1,-1,-1,-1,-1,-1,-1,-1,-1,-1,-1,-1,-1,-1,-1,-1,-1,-1,-1,-1,-1,-1,-1,-1,-1,-1,-1,-1,-1,-1,-1,-1,-1,-1,-1,-1,-1,-1,-1,-1],"split_conditions":[3.891628E-3,3.1163456E0,5.7404945E-3,2.555268E-1,2.0131926E-1,2.3338306E-1,1.4327659E-6,1.8295646E-3,4.0049824E-1,1.6526625E-2,1.5840118E-7,1.8517068E-2,3.743719E-1,1.0257064E0,8.008521E-3,1.07087055E-2,3.296375E-4,2.1867675E-3,1.1952385E1,5.7853595E-7,4.7436748E-5,1.3311456E1,2.7405712E-1,2.3598256E-4,3.8823106E-5,4.8365174E-3,4.1912855E-3,1.5746644E-1,8.962807E0,1.8162936E-1,5.733501E0,2.8252578E-4,5.949184E-4,2.783918E-3,1.2913347E-2,9.463424E-5,1.5840118E-7,2.1658987E-3,9.675739E-1,2.724701E-3,2.8709413E-3,6.5509806E0,5.7979374E0,2.802504E-2,2.9578388E-1,4.843321E0,2.9942305E-3,1.3417166E0,5.011489E-3,1.2789837E-1,5.2819395E0,1.4173005E-4,1.8335721E0,4.245197E-1,4.644988E-1,1.7033186E-2,7.5921086E-3,9.127382E-3,1.0617707E-2,4.9903865E0,4.238945E-6,1.4920515E-2,8.380928E-3,1.3073187E-1,9.8272525E-2,8.4542595E-2,3.0566677E-2,9.4548546E-2,5.472454E-2,3.2400478E-2,-2.5235582E-2,8.2019E-2,1.1194984E-2,9.824119E-2,-4.634539E-2,-3.2463014E-2,-1.0040759E-1,2.4436522E-2,-1.3889675E-1,1.299899E-1,4.4381958E-2,3.785544E-2,-3.6573034E-2,4.9794346E-2,-5.6988884E-2,-4.3113932E-2,-9.4000615E-2,7.941095E-2,-8.869675E-2,2.6909113E-2,-8.937255E-2,-2.0575417E-2,-8.444961E-2,-9.530294E-2,-1.4820477E-1,2.2645213E-2,-5.4992724E-2,-4.5327667E-2,-8.916217E-2,5.9200075E-2,-8.103745E-2,-9.712212E-2,-1.494637E-1,-5.3225737E-2,-1.04830086E-1,-7.050126E-2,-1.4798605E-1,-4.443398E-2,-1.4543857E-1,-8.758579E-2,-1.6817877E-1,5.4359645E-2,-6.58811E-2,-2.3816256E-2,-1.3774139E-1,-5.939127E-2,-1.463613E-1,-1.6522168E-1,-7.884199E-2,-1.091236E-1,-1.4437616E-1,-2.0852488E-2,-1.6199522E-1,-1.73036E-1,-7.056553E-2,-1.7715883E-2,-1.5792355E-1],"split_indices":[3,2,3,0,0,0,7,3,0,5,7,5,0,9,3,5,7,3,8,7,7,8,0,7,7,3,3,0,8,0,9,7,7,3,5,7,7,3,9,3,3,2,2,5,0,2,3,9,3,0,2,7,8,0,9,5,3,3,3,8,7,7,5,0,0,0,0,0,0,0,0,0,0,0,0,0,0,0,0,0,0,0,0,0,0,0,0,0,0,0,0,0,0,0,0,0,0,0,0,0,0,0,0,0,0,0,0,0,0,0,0,0,0,0,0,0,0,0,0,0,0,0,0,0,0,0,0],"split_type":[0,0,0,0,0,0,0,0,0,0,0,0,0,0,0,0,0,0,0,0,0,0,0,0,0,0,0,0,0,0,0,0,0,0,0,0,0,0,0,0,0,0,0,0,0,0,0,0,0,0,0,0,0,0,0,0,0,0,0,0,0,0,0,0,0,0,0,0,0,0,0,0,0,0,0,0,0,0,0,0,0,0,0,0,0,0,0,0,0,0,0,0,0,0,0,0,0,0,0,0,0,0,0,0,0,0,0,0,0,0,0,0,0,0,0,0,0,0,0,0,0,0,0,0,0,0,0],"sum_hessian":[7.3628037E3,5.2702866E3,2.092517E3,3.735607E3,1.5346798E3,9.963714E2,1.0961456E3,3.195903E3,5.39704E2,1.00005206E3,5.3462775E2,7.222818E2,2.7408963E2,6.828423E1,1.0278615E3,2.0167885E3,1.1791146E3,4.1529703E2,1.2440695E2,6.4500574E2,3.5504636E2,4.0333496E1,4.9429425E2,5.7616425E2,1.4611754E2,1.8214944E2,9.1940186E1,2.7241966E1,4.1042263E1,5.9579926E2,4.320622E2,1.6500135E3,3.667749E2,6.599906E2,5.19124E2,2.7484848E2,1.4044855E2,8.644223E1,3.7964725E1,8.4017555E1,5.6098816E2,5.683014E1,2.9821622E2,3.0106316E1,1.0227179E1,1.9417981E2,3.0011444E2,2.4779643E2,3.2836783E2,1.0218381E1,1.3589915E2,1.0477553E2,7.7373924E1,1.9983732E1,7.195645E1,1.8316402E1,8.925565E0,2.2101116E1,1.8941147E1,3.3973517E2,2.5606412E2,4.055852E2,2.6476973E1,9.290111E2,7.210024E2,2.568387E2,1.0993617E2,3.8306738E2,2.769232E2,4.167767E2,1.02347336E2,6.872669E1,2.0612178E2,8.954439E0,1.3149411E2,5.670904E1,2.9733185E1,1.2492659E0,3.6715458E1,6.790616E1,1.6111391E1,4.668126E2,9.417557E1,4.0109337E1,1.67208E1,1.680481E2,1.3016812E2,2.6609154E1,3.497162E0,3.234368E0,6.9928102E0,9.028812E1,1.0389169E2,2.4413815E2,5.5976288E1,1.6316678E2,8.4629654E1,2.2386902E2,1.0449882E2,6.481296E0,3.7370844E0,8.3424614E1,5.2474537E1,2.9635347E1,7.514018E1,1.0720975E1,6.665295E1,7.9943213E0,1.1989411E1,5.996027E0,6.596043E1,1.3840888E1,4.475514E0,4.7080083E0,4.217556E0,1.5640614E1,6.4605026E0,1.5948134E1,2.9930134E0,2.1481664E2,1.24918526E2,1.746463E0,2.5431764E2,4.0134506E2,4.240152E0,5.495213E0,2.098176E1],"tree_param":{"num_deleted":"0","num_feature":"10","num_nodes":"127","size_leaf_vector":"1"}},{"base_weights":[8.744028E-3,4.3201062E-1,-9.434099E-1,7.1269274E-1,-8.2394326E-1,-6.350207E-1,-1.477955E0,8.813181E-1,-4.3848096E-3,-4.7036895E-1,-1.3900752E0,-2.3883109E-1,-1.0459653E0,-1.2789068E0,-1.6590877E0,1.0179256E0,5.64917E-1,2.10006E-1,-6.460055E-1,-3.0058524E-1,-8.236096E-1,-1.1009078E0,-1.5667381E0,-9.653522E-2,-1.0141432E0,-8.8792056E-1,-1.3840574E0,-9.0474236E-1,-1.5272995E0,-1.6691912E0,-1.0018715E0,1.1161145E0,6.286216E-1,8.4885883E-1,3.596328E-1,1.0129907E0,1.0604148E-1,-3.1415227E-1,-8.418514E-1,-8.2004584E-2,-5.800311E-1,5.478394E-1,-9.023037E-1,-6.1156016E-2,-1.1534892E0,-1.4380426E0,-1.7008413E0,8.02959E-2,-4.923794E-1,-8.2359934E-1,-1.352714E0,-6.384124E-1,-1.1200343E0,-9.2042524E-1,-1.4337031E0,6.898751E-2,-9.730844E-1,-9.1038096E-1,-1.5997277E0,-1.2135085E0,-1.6856627E-1,4.7915652E-2,-1.361333E0,1.2089258E-1,6.771015E-2,7.7725306E-2,2.658726E-2,9.3870856E-2,3.2913897E-2,4.8722252E-2,-1.6771266E-2,1.08651936E-1,-1.963004E-2,4.584481E-2,-1.1881882E-2,-2.265168E-2,-1.4971446E-1,-6.37943E-2,-1.2532489E-1,9.205903E-3,-5.8585268E-2,-4.904991E-2,-1.0561865E-1,7.93608E-2,-7.273088E-2,-2.3574546E-2,-9.827109E-2,-7.778667E-2,4.8867013E-2,-1.0194309E-1,-1.4684352E-1,-1.6518651E-1,-1.1251336E-1,-6.327778E-2,-1.7492251E-1,1.7562147E-2,-5.2871387E-2,-1.4948129E-2,-8.734405E-2,-6.3789815E-2,-1.3945283E-1,1.6424082E-2,-1.4070927E-1,-2.9153807E-2,-8.010121E-2,-1.0032934E-1,-1.4189255E-1,2.0287244E-2,-1.3434201E-1,-1.05409876E-1,-1.5030335E-1,6.572225E-2,-5.779422E-2,-8.457907E-2,-1.3300504E-1,2.5362081E-3,-1.1087425E-1,-4.291348E-2,-1.617469E-1,-1.5560801E-1,-2.52661E-2,-3.6459368E-2,-1.550663E-1],"categories":[],"categories_nodes":[],"categories_segments":[],"categories_sizes":[],"default_left":[0,0,0,0,0,0,0,0,0,0,0,0,0,0,0,0,0,0,0,0,0,0,0,0,0,0,0,0,0,0,0,0,0,0,0,0,0,0,0,0,0,0,0,0,0,0,0,0,0,0,0,0,0,0,0,0,0,0,0,0,0,0,0,0,0,0,0,0,0,0,0,0,0,0,0,0,0,0,0,0,0,0,0,0,0,0,0,0,0,0,0,0,0,0,0,0,0,0,0,0,0,0,0,0,0,0,0,0,0,0,0,0,0,0,0,0,0,0,0,0,0,0,0],"id":2,"left_children":[1,3,5,7,9,11,13,15,17,19,21,23,25,27,29,31,33,35,37,39,41,43,45,47,49,51,53,55,57,59,61,63,65,67,69,71,73,75,77,79,81,83,85,87,89,91,93,95,97,99,101,103,105,107,109,111,113,115,117,119,-1,-1,121,-1,-1,-1,-1,-1,-1,-1,-1,-1,-1,-1,-1,-1,-1,-1,-1,-1,-1,-1,-1,-1,-1,-1,-1,-1,-1,-1,-1,-1,-1,-1,-1,-1,-1,-1,-1,-1,-1,-1,-1,-1,-1,-1,-1,-1,-1,-1,-1,-1,-1,-1,-1,-1,-1,-1,-1,-1,-1,-1,-1],"loss_changes":[2.9377478E3,1.77949E3,3.688523E2,4.9878735E2,1.8394305E2,2.3164148E2,2.7440186E1,1.4377441E2,1.0830205E2,3.3888687E1,1.6360474E1,8.004773E1,3.611206E1,3.5330505E1,1.1560059E0,8.841333E1,5.8527954E1,4.915942E1,1.2551041E1,2.3529125E1,2.0373215E1,7.453583E0,1.3060913E0,4.308175E1,6.146698E0,2.7026337E1,3.763153E0,1.0718475E1,9.086609E0,1.0915527E0,5.4170675E0,7.498657E1,2.5233765E1,1.9434113E1,3.9614098E1,6.2181168E0,4.154709E1,7.413175E0,9.552902E0,1.9150509E1,6.6969643E0,3.9046788E0,9.124832E0,3.4068465E0,4.0315857E0,5.996872E0,4.11203E0,2.4817991E1,2.469746E1,7.0169716E0,3.4460983E0,1.2918137E1,7.1888733E0,1.1748249E1,3.617981E0,4.729817E0,5.6740417E0,5.0604897E0,3.6638184E0,5.581505E0,0E0,0E0,8.4288883E-1,0E0,0E0,0E0,0E0,0E0,0E0,0E0,0E0,0E0,0E0,0E0,0E0,0E0,0E0,0E0,0E0,0E0,0E0,0E0,0E0,0E0,0E0,0E0,0E0,0E0,0E0,0E0,0E0,0E0,0E0,0E0,0E0,0E0,0E0,0E0,0E0,0E0,0E0,0E0,0E0,0E0,0E0,0E0,0E0,0E0,0E0,0E0,0E0,0E0,0E0,0E0,0E0,0E0,0E0,0E0,0E0,0E0,0E0,0E0,0E0],"parents":[2147483647,0,0,1,1,2,2,3,3,4,4,5,5,6,6,7,7,8,8,9,9,10,10,11,11,12,12,13,13,14,14,15,15,16,16,17,17,18,18,19,19,20,20,21,21,22,22,23,23,24,24,25,25,26,26,27,27,28,28,29,29,30,30,31,31,32,32,33,33,34,34,35,35,36,36,37,37,38,38,39,39,40,40,41,41,42,42,43,43,44,44,45,45,46,46,47,47,48,48,49,49,50,50,51,51,52,52,53,53,54,54,55,55,56,56,57,57,58,58,59,59,62,62],"right_children":[2,4,6,8,10,12,14,16,18,20,22,24,26,28,30,32,34,36,38,40,42,44,46,48,50,52,54,56,58,60,62,64,66,68,70,72,74,76,78,80,82,84,86,88,90,92,94,96,98,100,102,104,106,108,110,112,114,116,118,120,-1,-1,122,-1,-1,-1,-1,-1,-1,-1,-1,-1,-1,-1,-1,-1,-1,-1,-1,-1,-1,-1,-1,-1,-1,-1,-1,-1,-1,-1,-1,-1,-1,-1,-1,-1,-1,-1,-1,-1,-1,-1,-1,-1,-1,-1,-1,-1,-1,-1,-1,-1,-1,-1,-1,-1,-1,-1,-1,-1,-1,-1,-1],"split_conditions":[3.6623818E-3,4.400437E-2,4.0429126E-2,3.828436E0,6.55259E-2,5.521192E-3,6.0123928E-2,2.0366763E-3,2.1363342E-2,2.2077886E-3,7.666377E-2,5.2819395E0,8.336798E-3,5.205599E-3,3.4863663E1,2.7225034E-2,1.8883958E-4,3.3414364E-7,2.3790638E-4,5.336636E-2,1.5840118E-7,1.5840118E-7,9.2493385E-2,2.3328166E-2,2.1598736E-2,3.2904404E-4,4.0947306E-3,2.3169746E-6,4.7016783E-5,3.8477061E-3,2.330862E-4,1.1429538E-2,5.215742E-4,3.0712688E-2,2.5798101E0,1.4473031E1,1.1345389E-3,1.424447E1,3.218106E-2,1.5531275E-2,2.1873929E-2,3.125831E0,2.4425283E-3,9.204034E-4,2.541878E-3,2.3325837E0,9.703611E-2,1.8707827E-2,3.771628E-4,4.8901816E-3,1.5840118E-7,6.6600633E-3,1.830285E-2,9.364987E-3,9.308166E-5,4.1912855E-3,2.3325837E0,9.926151E-1,1.3757698E-1,1.0624107E1,-1.6856627E-1,4.7915652E-2,1.1241377E1,1.2089258E-1,6.771015E-2,7.7725306E-2,2.658726E-2,9.3870856E-2,3.2913897E-2,4.8722252E-2,-1.6771266E-2,1.08651936E-1,-1.963004E-2,4.584481E-2,-1.1881882E-2,-2.265168E-2,-1.4971446E-1,-6.37943E-2,-1.2532489E-1,9.205903E-3,-5.8585268E-2,-4.904991E-2,-1.0561865E-1,7.93608E-2,-7.273088E-2,-2.3574546E-2,-9.827109E-2,-7.778667E-2,4.8867013E-2,-1.0194309E-1,-1.4684352E-1,-1.6518651E-1,-1.1251336E-1,-6.327778E-2,-1.7492251E-1,1.7562147E-2,-5.2871387E-2,-1.4948129E-2,-8.734405E-2,-6.3789815E-2,-1.3945283E-1,1.6424082E-2,-1.4070927E-1,-2.9153807E-2,-8.010121E-2,-1.0032934E-1,-1.4189255E-1,2.0287244E-2,-1.3434201E-1,-1.05409876E-1,-1.5030335E-1,6.572225E-2,-5.779422E-2,-8.457907E-2,-1.3300504E-1,2.5362081E-3,-1.1087425E-1,-4.291348E-2,-1.617469E-1,-1.5560801E-1,-2.52661E-2,-3.6459368E-2,-1.550663E-1],"split_indices":[3,1,1,2,1,3,1,3,5,3,1,2,3,3,8,1,7,7,7,1,7,7,1,1,5,7,1,7,7,3,7,5,7,1,2,8,3,2,5,5,5,9,5,3,3,9,0,5,7,3,7,5,5,3,7,3,9,2,2,8,0,0,2,0,0,0,0,0,0,0,0,0,0,0,0,0,0,0,0,0,0,0,0,0,0,0,0,0,0,0,0,0,0,0,0,0,0,0,0,0,0,0,0,0,0,0,0,0,0,0,0,0,0,0,0,0,0,0,0,0,0,0,0],"split_type":[0,0,0,0,0,0,0,0,0,0,0,0,0,0,0,0,0,0,0,0,0,0,0,0,0,0,0,0,0,0,0,0,0,0,0,0,0,0,0,0,0,0,0,0,0,0,0,0,0,0,0,0,0,0,0,0,0,0,0,0,0,0,0,0,0,0,0,0,0,0,0,0,0,0,0,0,0,0,0,0,0,0,0,0,0,0,0,0,0,0,0,0,0,0,0,0,0,0,0,0,0,0,0,0,0,0,0,0,0,0,0,0,0,0,0,0,0,0,0,0,0,0,0],"sum_hessian":[7.2874155E3,5.045193E3,2.242223E3,4.1239907E3,9.212019E2,1.4232885E3,8.1893445E2,3.3386555E3,7.853354E2,5.6817957E2,3.5302234E2,7.2545874E2,6.978297E2,3.9401205E2,4.2492236E2,2.3303147E3,1.00834064E3,5.8914984E2,1.9618553E2,3.849877E2,1.8319186E2,1.3662383E2,2.163985E2,6.1391003E2,1.1154865E2,4.780067E2,2.1982304E2,1.5905824E2,2.3495381E2,4.169723E2,7.950081E0,1.8594612E3,4.7085355E2,4.2179446E2,5.865462E2,6.653256E1,5.2261725E2,7.3777145E1,1.22408394E2,2.1674484E2,1.6824287E2,9.617655E0,1.7357422E2,6.680755E0,1.2994307E2,1.1640805E2,9.999045E1,4.2489746E2,1.890126E2,7.3574394E1,3.7974266E1,2.3217894E2,2.4582776E2,2.3151806E1,1.9667123E2,1.0430873E1,1.4862737E2,2.6111814E1,2.08842E2,1.71513E1,3.9982098E2,1.4876764E0,6.4624047E0,1.5335101E3,3.2595108E2,3.3319055E2,1.3766298E2,3.589352E2,6.2859276E1,4.7234076E2,1.14205414E2,6.281475E1,3.7178113E0,2.0316821E2,3.1944907E2,6.979802E1,3.9791253E0,8.3548416E1,3.8859974E1,1.616999E2,5.504493E1,1.4332368E2,2.4919195E1,8.380127E0,1.237528E0,1.9107666E1,1.5446655E2,2.720184E0,3.9605708E0,9.411806E1,3.5825016E1,6.6611115E1,4.9796936E1,4.943437E0,9.5047005E1,3.6800665E2,5.6890797E1,1.0022096E2,8.879164E1,5.7114536E1,1.6459856E1,1.2442489E0,3.6730015E1,7.499175E1,1.571872E2,1.7991377E2,6.591398E1,6.47563E0,1.6676176E1,3.287504E1,1.637962E2,5.4549394E0,4.9759336E0,1.1204253E2,3.6584846E1,4.719652E0,2.1392162E1,3.4939702E0,2.0534802E2,1.2186833E1,4.964467E0,1.4986066E0,4.963798E0],"tree_param":{"num_deleted":"0","num_feature":"10","num_nodes":"123","size_leaf_vector":"1"}},{"base_weights":[-1.0413948E-2,4.2002085E-1,-7.9401696E-1,6.7148185E-1,-7.269307E-1,-5.0256544E-1,-1.328936E0,8.684607E-1,1.309442E-1,-3.7466455E-1,-1.2700914E0,-1.1401949E-1,-9.676035E-1,-1.1374619E0,-1.5022478E0,9.734471E-1,4.7778484E-1,3.9620104E-1,-1.3234128E-1,4.573664E-1,-4.418364E-1,-1.085613E0,-1.4916416E0,5.1359713E-2,-5.532282E-1,-8.07937E-1,-1.2263095E0,-9.0467095E-1,-1.457175E0,-9.613991E-1,-1.5319885E0,1.0890722E0,7.1800196E-1,9.6229917E-1,3.5108745E-1,5.580849E-1,1.3611586E-1,-1.7830407E-2,-8.851319E-1,5.7568175E-1,-1.016776E-1,-3.2846996E-1,-7.625336E-1,-1.4812918E0,-9.763448E-1,-7.940161E-1,-1.5323597E0,7.6063126E-1,-3.394876E-2,4.700359E-1,-6.297281E-1,-6.256646E-1,-1.0128232E0,-3.876986E-1,-1.252612E0,-7.1417123E-1,-1.0377648E0,-1.4648806E0,-1.8679468E-2,-5.5766594E-1,-1.4962249E-1,-1.4289591E0,-1.5878917E0,1.1703248E-1,7.837288E-2,8.377158E-2,3.9304342E-2,1.1999929E-1,7.202607E-2,5.3707954E-2,7.3593603E-3,6.4967126E-2,-1.8505406E-3,-1.03513554E-1,2.0698592E-2,2.594234E-2,-2.1150028E-2,-2.0419827E-2,-1.06942475E-1,8.096599E-2,-4.6531213E-3,-9.539518E-3,-4.4518873E-2,-8.01477E-2,9.312158E-2,6.264551E-3,-1.5802017E-1,-6.745118E-2,-1.1189427E-1,-1.0535904E-1,5.967812E-2,-4.9173143E-2,-1.5575048E-1,9.155538E-2,-2.0158201E-2,1.8237222E-2,-3.351303E-2,7.88476E-2,-5.8134746E-2,-5.0560247E-2,-9.857093E-2,-2.1429634E-2,-7.6241724E-2,-7.62332E-2,-1.171165E-1,3.9874795E-3,-9.4553135E-2,-6.302754E-2,-1.2862408E-1,-4.561537E-2,-1.00696266E-1,-1.2223311E-1,-8.928818E-2,-1.5483038E-1,-1.2880602E-1,-1.466566E-3,-1.02592744E-1,-1.4660521E-1,-1.00864194E-1,-1.6137089E-1,-1.2895904E-1],"categories":[],"categories_nodes":[],"categories_segments":[],"categories_sizes":[],"default_left":[0,0,0,0,0,0,0,0,0,0,0,0,0,0,0,0,0,0,0,0,0,0,0,0,0,0,0,0,0,0,0,0,0,0,0,0,0,0,0,0,0,0,0,0,0,0,0,0,0,0,0,0,0,0,0,0,0,0,0,0,0,0,0,0,0,0,0,0,0,0,0,0,0,0,0,0,0,0,0,0,0,0,0,0,0,0,0,0,0,0,0,0,0,0,0,0,0,0,0,0,0,0,0,0,0,0,0,0,0,0,0,0,0,0,0,0,0,0,0,0,0],"id":3,"left_children":[1,3,5,7,9,11,13,15,17,19,21,23,25,27,29,31,33,35,37,39,41,43,45,47,49,51,53,55,57,59,61,63,65,67,69,71,73,75,77,79,-1,81,83,85,87,89,91,93,95,97,99,101,103,105,107,109,111,113,-1,115,-1,117,119,-1,-1,-1,-1,-1,-1,-1,-1,-1,-1,-1,-1,-1,-1,-1,-1,-1,-1,-1,-1,-1,-1,-1,-1,-1,-1,-1,-1,-1,-1,-1,-1,-1,-1,-1,-1,-1,-1,-1,-1,-1,-1,-1,-1,-1,-1,-1,-1,-1,-1,-1,-1,-1,-1,-1,-1,-1,-1],"loss_changes":[2.4377734E3,1.3459486E3,3.9883398E2,4.073318E2,1.6012146E2,2.998951E2,2.8262207E1,1.1456201E2,7.151284E1,2.873671E1,1.1859314E1,6.5814835E1,3.0222412E1,3.0924194E1,6.102417E0,6.447754E1,3.624736E1,2.1394997E1,4.431579E1,7.3230925E0,1.6943428E1,6.4925995E0,2.9635925E0,3.9891964E1,1.969606E1,1.692575E1,5.8327637E0,5.681671E0,1.4971313E0,5.0456715E0,2.923584E-1,3.677112E1,2.6567993E1,6.210022E0,2.4425125E1,1.659336E1,1.6563377E1,2.4077898E1,8.299885E0,5.3368225E0,0E0,9.510769E0,8.843636E0,5.87162E0,5.564499E0,4.3079166E0,2.8443604E0,1.0735767E1,3.8441353E1,6.421802E0,9.709496E0,1.3981827E1,7.8231354E0,2.460855E0,4.9925537E0,7.6540794E0,2.8374176E0,6.557617E-1,0E0,4.3359156E0,0E0,1.1157837E0,6.994629E-2,0E0,0E0,0E0,0E0,0E0,0E0,0E0,0E0,0E0,0E0,0E0,0E0,0E0,0E0,0E0,0E0,0E0,0E0,0E0,0E0,0E0,0E0,0E0,0E0,0E0,0E0,0E0,0E0,0E0,0E0,0E0,0E0,0E0,0E0,0E0,0E0,0E0,0E0,0E0,0E0,0E0,0E0,0E0,0E0,0E0,0E0,0E0,0E0,0E0,0E0,0E0,0E0,0E0,0E0,0E0,0E0,0E0,0E0],"parents":[2147483647,0,0,1,1,2,2,3,3,4,4,5,5,6,6,7,7,8,8,9,9,10,10,11,11,12,12,13,13,14,14,15,15,16,16,17,17,18,18,19,19,20,20,21,21,22,22,23,23,24,24,25,25,26,26,27,27,28,28,29,29,30,30,31,31,32,32,33,33,34,34,35,35,36,36,37,37,38,38,39,39,41,41,42,42,43,43,44,44,45,45,46,46,47,47,48,48,49,49,50,50,51,51,52,52,53,53,54,54,55,55,56,56,57,57,59,59,61,61,62,62],"right_children":[2,4,6,8,10,12,14,16,18,20,22,24,26,28,30,32,34,36,38,40,42,44,46,48,50,52,54,56,58,60,62,64,66,68,70,72,74,76,78,80,-1,82,84,86,88,90,92,94,96,98,100,102,104,106,108,110,112,114,-1,116,-1,118,120,-1,-1,-1,-1,-1,-1,-1,-1,-1,-1,-1,-1,-1,-1,-1,-1,-1,-1,-1,-1,-1,-1,-1,-1,-1,-1,-1,-1,-1,-1,-1,-1,-1,-1,-1,-1,-1,-1,-1,-1,-1,-1,-1,-1,-1,-1,-1,-1,-1,-1,-1,-1,-1,-1,-1,-1,-1,-1],"split_conditions":[3.23779E-3,4.400437E-2,4.0429126E-2,3.050473E0,6.55259E-2,5.338565E-3,5.521192E-3,2.6741866E-2,2.8406005E-4,1.5840118E-7,8.31859E-2,3.7488887E0,7.7259038E-3,6.26876E-2,4.238945E-6,4.713646E-4,4.9935483E-5,5.093254E0,2.800999E-1,1.530944E1,4.1417756E0,1.3458645E-1,9.703611E-2,2.3169746E-6,1.5840118E-7,1.3301432E-1,1.1358707E-3,2.0977025E0,2.8835747E1,8.171026E-3,7.024389E-3,1.681194E-1,2.0154337E-3,5.7853595E-7,1.668654E-3,3.3602994E-2,1.2678564E0,1.1535359E-3,6.4866926E-4,3.63153E0,-1.016776E-1,9.5509994E-4,5.66049E-1,2.8221878E-1,2.321155E-4,1.2306737E-1,1.5840118E-7,1.5832696E0,1.8875005E-2,2.8157022E0,2.1400596E-1,5.7404945E-3,2.8300553E-4,9.94304E-3,1.5840118E-7,4.325631E-3,1.6368775E-1,1.1086587E1,-1.8679468E-2,5.757915E-2,-1.4962249E-1,2.066892E-3,1.7627197E1,1.1703248E-1,7.837288E-2,8.377158E-2,3.9304342E-2,1.1999929E-1,7.202607E-2,5.3707954E-2,7.3593603E-3,6.4967126E-2,-1.8505406E-3,-1.03513554E-1,2.0698592E-2,2.594234E-2,-2.1150028E-2,-2.0419827E-2,-1.06942475E-1,8.096599E-2,-4.6531213E-3,-9.539518E-3,-4.4518873E-2,-8.01477E-2,9.312158E-2,6.264551E-3,-1.5802017E-1,-6.745118E-2,-1.1189427E-1,-1.0535904E-1,5.967812E-2,-4.9173143E-2,-1.5575048E-1,9.155538E-2,-2.0158201E-2,1.8237222E-2,-3.351303E-2,7.88476E-2,-5.8134746E-2,-5.0560247E-2,-9.857093E-2,-2.1429634E-2,-7.6241724E-2,-7.62332E-2,-1.171165E-1,3.9874795E-3,-9.4553135E-2,-6.302754E-2,-1.2862408E-1,-4.561537E-2,-1.00696266E-1,-1.2223311E-1,-8.928818E-2,-1.5483038E-1,-1.2880602E-1,-1.466566E-3,-1.02592744E-1,-1.4660521E-1,-1.00864194E-1,-1.6137089E-1,-1.2895904E-1],"split_indices":[3,1,1,2,1,3,3,1,7,7,1,2,3,1,7,7,7,2,0,8,2,0,0,7,7,0,1,2,2,3,3,0,3,7,3,1,9,3,3,2,0,3,0,2,7,1,7,9,1,9,0,3,7,3,7,3,0,8,0,1,0,7,8,0,0,0,0,0,0,0,0,0,0,0,0,0,0,0,0,0,0,0,0,0,0,0,0,0,0,0,0,0,0,0,0,0,0,0,0,0,0,0,0,0,0,0,0,0,0,0,0,0,0,0,0,0,0,0,0,0,0],"split_type":[0,0,0,0,0,0,0,0,0,0,0,0,0,0,0,0,0,0,0,0,0,0,0,0,0,0,0,0,0,0,0,0,0,0,0,0,0,0,0,0,0,0,0,0,0,0,0,0,0,0,0,0,0,0,0,0,0,0,0,0,0,0,0,0,0,0,0,0,0,0,0,0,0,0,0,0,0,0,0,0,0,0,0,0,0,0,0,0,0,0,0,0,0,0,0,0,0,0,0,0,0,0,0,0,0,0,0,0,0,0,0,0,0,0,0,0,0,0,0,0,0],"sum_hessian":[7.225541E3,4.6640386E3,2.5615024E3,3.8256965E3,8.383422E2,1.659345E3,9.0215735E2,2.8034695E3,1.0222269E3,5.0955853E2,3.2878372E2,9.0470013E2,7.5464484E2,4.322134E2,4.6994394E2,2.20849E3,5.9497955E2,5.0895566E2,5.132713E2,3.7630882E1,4.7192764E2,1.8262082E2,1.461629E2,6.578696E2,2.468305E2,4.6919397E2,2.8545087E2,2.5232152E2,1.7989189E2,2.6231752E1,4.437122E2,1.5180798E3,6.9041003E2,1.2196552E2,4.7301404E2,3.129941E2,1.9596156E2,4.4639197E2,6.687931E1,3.5399204E1,2.2316759E0,3.5016763E2,1.2176E2,3.6801144E1,1.4581967E2,9.1911335E0,1.3697177E2,6.978093E1,5.880887E2,1.6811758E1,2.3001875E2,2.5044492E2,2.1874905E2,9.159352E0,2.762915E2,1.06397964E2,1.4592354E2,1.7865514E2,1.2367476E0,1.611184E1,1.0119914E1,1.654147E2,2.782975E2,1.1967811E3,3.2129877E2,5.0338605E2,1.8702397E2,5.953821E1,6.2427315E1,2.8263837E2,1.9037567E2,2.699829E2,4.301119E1,1.040441E1,1.8555714E2,1.8344144E2,2.6295053E2,1.4694267E1,5.218504E1,2.5506453E1,9.892752E0,1.1745E2,2.3271765E2,1.1953833E2,2.2216682E0,2.2377365E0,3.4563408E1,4.8625538E1,9.719414E1,7.949853E0,1.2412809E0,3.71658E0,1.3325519E2,6.014559E1,9.635336E0,3.424916E2,2.455971E2,1.309549E1,3.716267E0,1.7234485E2,5.76739E1,6.312486E1,1.8732005E2,8.697388E1,1.3177518E2,5.7106857E0,3.4486668E0,1.51764765E1,2.6111505E2,5.7917274E1,4.8480694E1,6.0902794E1,8.502075E1,1.1611575E2,6.2539387E1,7.9380836E0,8.173756E0,1.4971445E2,1.5700265E1,2.5207166E2,2.6225836E1],"tree_param":{"num_deleted":"0","num_feature":"10","num_nodes":"121","size_leaf_vector":"1"}},{"base_weights":[-5.2569574E-3,3.376738E-1,-8.0058837E-1,4.9983138E-1,-4.2394975E-1,-5.413859E-1,-1.2530463E0,7.8896856E-1,2.747581E-1,-2.297704E-1,-7.9943615E-1,3.1363595E-1,-6.043898E-1,-1.1184248E0,-1.4312936E0,8.5025173E-1,-1.056504E-1,4.403032E-1,-4.725576E-2,7.655799E-2,-4.988405E-1,-3.3953327E-1,-9.0934056E-1,5.640398E-1,-3.5044512E-1,-4.4040614E-1,-8.4435666E-1,-8.362942E-1,-1.1772081E0,-9.849829E-1,-1.4642297E0,9.478391E-1,4.5477766E-1,4.2946494E-1,-4.0865788E-1,1.0532542E0,3.741948E-1,7.5858384E-1,-1.4632446E-1,1.9769426E-1,-3.1561232E-1,-3.143905E-1,-7.552302E-1,3.0108808E-2,-7.926869E-1,-6.2432337E-1,-1.0772887E0,6.4830023E-1,-4.3846884E-1,-7.737561E-2,-1.0152699E0,-2.872494E-1,-6.568694E-1,-6.060752E-1,-1.0098882E0,-5.117814E-1,-1.1331434E0,-1.3986356E0,-1.076748E0,-1.1018999E0,7.4354835E-2,-1.4834517E0,-8.1631094E-1,1.0668939E-1,7.4425004E-2,6.263916E-2,1.1504033E-2,2.6595337E-2,1.064283E-1,-5.589376E-2,3.429714E-2,1.2457807E-1,9.0016685E-2,4.6904016E-2,-6.018391E-3,8.90471E-2,6.3277157E-3,1.1314899E-3,-3.6631253E-2,3.1545356E-2,-1.73983E-2,1.6021764E-2,-5.2086145E-2,-1.7494192E-2,-7.149416E-2,-6.6393495E-2,-1.0999483E-1,8.794102E-2,-1.9228484E-2,-1.2309285E-1,-4.0364917E-2,5.6777265E-2,-6.918108E-2,-7.452633E-2,-1.1616888E-1,7.374104E-2,-3.445737E-2,2.9494489E-2,-1.2747237E-1,-5.209387E-2,5.647851E-2,-1.900418E-3,-1.4860842E-1,-1.27340425E-2,-5.045839E-2,-9.17485E-2,-5.1183976E-2,-4.8175137E-2,-9.8420255E-2,-8.5743785E-2,-1.1645887E-1,-6.412913E-2,3.207962E-2,-1.2619092E-1,-4.8761707E-2,-1.4224453E-1,4.3221008E-2,-8.604012E-2,-1.1806537E-1,-1.21057324E-1,3.6869083E-2,-1.560136E-1,-1.3371877E-1,9.809958E-3,-1.1184392E-1],"categories":[],"categories_nodes":[],"categories_segments":[],"categories_sizes":[],"default_left":[0,0,0,0,0,0,0,0,0,0,0,0,0,0,0,0,0,0,0,0,0,0,0,0,0,0,0,0,0,0,0,0,0,0,0,0,0,0,0,0,0,0,0,0,0,0,0,0,0,0,0,0,0,0,0,0,0,0,0,0,0,0,0,0,0,0,0,0,0,0,0,0,0,0,0,0,0,0,0,0,0,0,0,0,0,0,0,0,0,0,0,0,0,0,0,0,0,0,0,0,0,0,0,0,0,0,0,0,0,0,0,0,0,0,0,0,0,0,0,0,0,0,0,0,0],"id":4,"left_children":[1,3,5,7,9,11,13,15,17,19,21,23,25,27,29,31,33,35,37,39,41,43,45,47,49,51,53,55,57,59,61,63,65,67,69,71,73,75,77,79,81,83,85,87,89,91,93,95,97,99,101,103,105,107,109,111,113,115,117,119,-1,121,123,-1,-1,-1,-1,-1,-1,-1,-1,-1,-1,-1,-1,-1,-1,-1,-1,-1,-1,-1,-1,-1,-1,-1,-1,-1,-1,-1,-1,-1,-1,-1,-1,-1,-1,-1,-1,-1,-1,-1,-1,-1,-1,-1,-1,-1,-1,-1,-1,-1,-1,-1,-1,-1,-1,-1,-1,-1,-1,-1,-1,-1,-1],"loss_changes":[1.9464493E3,6.1605896E2,2.5147778E2,2.6735657E2,6.3676315E1,7.3922516E1,1.7172241E1,9.872876E1,1.233475E2,4.7737606E1,1.4761093E1,1.5927515E1,4.980536E1,6.4833374E0,3.4535522E0,6.455713E1,1.9022144E1,6.152484E1,6.289362E1,1.2959582E1,1.4338806E1,9.923738E0,1.0817841E1,6.119179E0,4.7356834E0,2.4993637E1,1.9762238E1,7.2321625E0,6.728821E0,6.062483E0,2.6262817E0,3.1920776E1,1.947171E1,4.12947E0,8.632147E0,3.2468567E0,5.6917694E1,7.8537216E0,2.4319561E1,9.16011E0,6.3782167E0,9.98348E0,3.3058624E0,6.4991555E0,4.0362377E0,7.744461E0,3.3282166E0,5.9274006E0,4.0265536E0,5.9568205E0,3.5545855E0,1.5457363E1,1.1397354E1,9.597603E0,6.1546326E0,4.579877E0,2.8366776E0,5.5054016E0,4.806488E0,4.39427E0,0E0,1.2562866E0,3.176579E0,0E0,0E0,0E0,0E0,0E0,0E0,0E0,0E0,0E0,0E0,0E0,0E0,0E0,0E0,0E0,0E0,0E0,0E0,0E0,0E0,0E0,0E0,0E0,0E0,0E0,0E0,0E0,0E0,0E0,0E0,0E0,0E0,0E0,0E0,0E0,0E0,0E0,0E0,0E0,0E0,0E0,0E0,0E0,0E0,0E0,0E0,0E0,0E0,0E0,0E0,0E0,0E0,0E0,0E0,0E0,0E0,0E0,0E0,0E0,0E0,0E0,0E0],"parents":[2147483647,0,0,1,1,2,2,3,3,4,4,5,5,6,6,7,7,8,8,9,9,10,10,11,11,12,12,13,13,14,14,15,15,16,16,17,17,18,18,19,19,20,20,21,21,22,22,23,23,24,24,25,25,26,26,27,27,28,28,29,29,30,30,31,31,32,32,33,33,34,34,35,35,36,36,37,37,38,38,39,39,40,40,41,41,42,42,43,43,44,44,45,45,46,46,47,47,48,48,49,49,50,50,51,51,52,52,53,53,54,54,55,55,56,56,57,57,58,58,59,59,61,61,62,62],"right_children":[2,4,6,8,10,12,14,16,18,20,22,24,26,28,30,32,34,36,38,40,42,44,46,48,50,52,54,56,58,60,62,64,66,68,70,72,74,76,78,80,82,84,86,88,90,92,94,96,98,100,102,104,106,108,110,112,114,116,118,120,-1,122,124,-1,-1,-1,-1,-1,-1,-1,-1,-1,-1,-1,-1,-1,-1,-1,-1,-1,-1,-1,-1,-1,-1,-1,-1,-1,-1,-1,-1,-1,-1,-1,-1,-1,-1,-1,-1,-1,-1,-1,-1,-1,-1,-1,-1,-1,-1,-1,-1,-1,-1,-1,-1,-1,-1,-1,-1,-1,-1,-1,-1,-1,-1],"split_conditions":[3.668018E-2,1.7033186E-2,6.26876E-2,4.954591E-5,2.5897255E-2,3.3414364E-7,8.31859E-2,9.380978E0,2.5033116E0,9.403799E-5,3.1129488E-7,5.21609E-2,3.1163456E0,3.975294E-5,9.793062E-2,7.5655844E-4,2.321155E-4,3.3414364E-7,3.3414364E-7,8.477145E-4,1.9679002E-2,4.96795E0,3.256157E-4,2.802504E-2,9.722004E0,8.986438E-3,9.3887895E-5,2.7403862E0,1.7252715E-1,8.996212E-4,5.9258533E-3,7.553462E-3,1.3845332E-1,1.7441162E-4,1.9220952E-3,2.1061985E0,2.6480768E-2,9.270769E0,4.329799E0,5.093254E0,2.3295834E0,7.438074E-4,2.3149302E-2,9.394523E-5,6.5565243E0,3.7716225E-1,7.5814924E-3,3.743719E-1,5.1731822E-5,1.995188E-1,9.627804E-3,4.2595484E-4,1.264673E0,7.092671E0,1.5531275E-2,1.8900912E-2,2.5213674E-7,1.7627197E1,2.321155E-4,1.378105E-1,7.4354835E-2,1.280721E1,1.6584512E0,1.0668939E-1,7.4425004E-2,6.263916E-2,1.1504033E-2,2.6595337E-2,1.064283E-1,-5.589376E-2,3.429714E-2,1.2457807E-1,9.0016685E-2,4.6904016E-2,-6.018391E-3,8.90471E-2,6.3277157E-3,1.1314899E-3,-3.6631253E-2,3.1545356E-2,-1.73983E-2,1.6021764E-2,-5.2086145E-2,-1.7494192E-2,-7.149416E-2,-6.6393495E-2,-1.0999483E-1,8.794102E-2,-1.9228484E-2,-1.2309285E-1,-4.0364917E-2,5.6777265E-2,-6.918108E-2,-7.452633E-2,-1.1616888E-1,7.374104E-2,-3.445737E-2,2.9494489E-2,-1.2747237E-1,-5.209387E-2,5.647851E-2,-1.900418E-3,-1.4860842E-1,-1.27340425E-2,-5.045839E-2,-9.17485E-2,-5.1183976E-2,-4.8175137E-2,-9.8420255E-2,-8.5743785E-2,-1.1645887E-1,-6.412913E-2,3.207962E-2,-1.2619092E-1,-4.8761707E-2,-1.4224453E-1,4.3221008E-2,-8.604012E-2,-1.1806537E-1,-1.21057324E-1,3.6869083E-2,-1.560136E-1,-1.3371877E-1,9.809958E-3,-1.1184392E-1],"split_indices":[1,5,1,4,5,7,1,8,2,4,4,1,2,4,0,7,7,7,7,7,1,2,7,5,8,5,4,2,0,4,7,5,0,7,7,8,1,8,2,2,2,7,5,7,8,8,1,0,4,0,5,7,2,2,5,5,4,8,7,1,0,8,2,0,0,0,0,0,0,0,0,0,0,0,0,0,0,0,0,0,0,0,0,0,0,0,0,0,0,0,0,0,0,0,0,0,0,0,0,0,0,0,0,0,0,0,0,0,0,0,0,0,0,0,0,0,0,0,0,0,0,0,0,0,0],"split_type":[0,0,0,0,0,0,0,0,0,0,0,0,0,0,0,0,0,0,0,0,0,0,0,0,0,0,0,0,0,0,0,0,0,0,0,0,0,0,0,0,0,0,0,0,0,0,0,0,0,0,0,0,0,0,0,0,0,0,0,0,0,0,0,0,0,0,0,0,0,0,0,0,0,0,0,0,0,0,0,0,0,0,0,0,0,0,0,0,0,0,0,0,0,0,0,0,0,0,0,0,0,0,0,0,0,0,0,0,0,0,0,0,0,0,0,0,0,0,0,0,0,0,0,0,0],"sum_hessian":[7.134562E3,4.9854937E3,2.1490684E3,4.1106396E3,8.748542E2,1.3677264E3,7.8134186E2,1.7981572E3,2.3124824E3,5.7770917E2,2.9714505E2,9.359374E1,1.2741327E3,4.492898E2,3.3205203E2,1.6829232E3,1.1523399E2,1.5270626E3,7.854198E2,2.704852E2,3.0722397E2,5.8102062E1,2.3904297E2,6.807534E1,2.5518402E1,7.5858307E2,5.155496E2,8.009598E1,3.6919382E2,2.494412E1,3.071079E2,1.3487166E3,3.342066E2,4.1509792E1,7.37242E1,1.4721034E2,1.3798523E3,8.525836E1,7.0016144E2,2.0703171E2,6.3453484E1,1.7997435E2,1.2724962E2,3.2513786E1,2.5588274E1,9.038022E1,1.4866275E2,6.3123184E1,4.9521546E0,1.8880024E1,6.6383786E0,4.456173E2,3.129658E2,2.1324556E2,3.0230405E2,3.9566402E1,4.0529575E1,1.11191124E2,2.5800272E2,2.370336E1,1.2407602E0,2.9700693E2,1.0100982E1,8.4836755E2,5.0034906E2,2.2148337E2,1.1272322E2,3.4136196E1,7.3735967E0,6.165362E1,1.2070577E1,6.2044254E1,8.5166084E1,1.1324954E3,2.4735692E2,7.1428894E1,1.3829467E1,4.084339E2,2.9172757E2,1.5733438E2,4.9697323E1,1.9188381E1,4.4265102E1,1.3456381E2,4.5410538E1,1.02918655E2,2.4330969E1,6.134061E0,2.6379725E1,1.101552E1,1.4572755E1,4.4453115E0,8.5934906E1,3.212292E1,1.1653983E2,5.8160587E1,4.962596E0,2.9831605E0,1.9689941E0,1.1278404E1,7.6016197E0,2.464257E0,4.174122E0,2.576392E2,1.8797813E2,1.0998986E2,2.0297592E2,1.6219255E2,5.1053005E1,1.5555458E2,1.4674948E2,3.443906E1,5.1273437E0,3.2993397E1,7.5361786E0,1.0998388E2,1.207241E0,8.671982E1,1.7128288E2,2.2236914E1,1.4664466E0,1.885082E2,1.0849873E2,2.6762981E0,7.424684E0],"tree_param":{"num_deleted":"0","num_feature":"10","num_nodes":"125","size_leaf_vector":"1"}},{"base_weights":[2.0071652E-3,3.24377E-1,-8.1657E-1,5.602955E-1,-6.281394E-2,-4.7931218E-1,-1.0332849E0,7.078713E-1,1.0794712E-1,8.327716E-2,-5.7538474E-1,-3.1609818E-1,-9.203511E-1,-8.551922E-1,-1.1812437E0,9.774431E-1,4.7057503E-1,2.6703352E-1,-3.9496788E-1,2.1229813E-1,-4.7249952E-1,-2.8734353E-1,-7.254766E-1,1.3444482E-1,-4.4347495E-1,-1.5216291E-1,-8.6944646E-1,-6.018247E-1,-1.0714235E0,-9.042802E-1,-1.2502903E0,1.1205747E0,7.577441E-1,6.740653E-1,2.1148948E-1,7.033289E-1,1.423831E-1,5.6926403E-2,-5.962708E-1,3.2345444E-1,-3.0303124E-1,1.616762E-1,-6.0471886E-1,3.9351434E-1,-4.4460538E-1,-5.706076E-1,-1.1109241E0,4.5151085E-1,-1.13418385E-1,-1.9365819E-1,-6.58252E-1,-7.391975E-1,-1.120392E0,-4.6296445E-1,-1.0117786E0,-2.208009E-1,-1.1241778E0,-5.4856217E-1,-1.0746032E0,-1.1256769E0,-1.3739085E0,1.18686356E-1,7.370151E-2,8.654804E-2,3.4552965E-2,7.809724E-2,2.7428655E-2,3.79374E-2,-1.0622353E-2,8.708608E-2,3.3928603E-2,2.9935941E-2,-2.2574663E-2,2.5163988E-2,-8.2675844E-2,4.2925745E-2,-6.630968E-2,4.423701E-2,-8.156863E-3,9.337853E-3,-5.1963832E-2,3.8678527E-2,-7.548996E-2,-2.9398892E-2,-7.338192E-2,6.758284E-2,-3.8433556E-2,-1.11047365E-2,-5.8350142E-2,-1.389939E-1,-4.9311988E-2,-5.4406207E-2,-1.2122234E-1,5.1925667E-2,-5.0591946E-2,-1.09429136E-1,-2.1531899E-3,1.4565882E-2,-3.5538808E-2,-2.3822397E-2,-7.6482385E-2,-8.893501E-2,-3.573319E-2,-8.285674E-2,-1.2859216E-1,-2.1970674E-2,-6.7237966E-2,-1.2674507E-5,-1.06080465E-1,9.319858E-2,-3.9335918E-2,-7.945645E-2,-1.177725E-1,-7.375947E-2,7.557974E-2,-1.11082554E-1,-3.6941525E-3,-4.7968373E-2,-1.15753554E-1,-1.382499E-1,-2.3971427E-2],"categories":[],"categories_nodes":[],"categories_segments":[],"categories_sizes":[],"default_left":[0,0,0,0,0,0,0,0,0,0,0,0,0,0,0,0,0,0,0,0,0,0,0,0,0,0,0,0,0,0,0,0,0,0,0,0,0,0,0,0,0,0,0,0,0,0,0,0,0,0,0,0,0,0,0,0,0,0,0,0,0,0,0,0,0,0,0,0,0,0,0,0,0,0,0,0,0,0,0,0,0,0,0,0,0,0,0,0,0,0,0,0,0,0,0,0,0,0,0,0,0,0,0,0,0,0,0,0,0,0,0,0,0,0,0,0,0,0,0,0,0],"id":5,"left_children":[1,3,5,7,9,11,13,15,17,19,21,23,25,27,29,31,33,35,37,39,41,43,45,47,49,-1,51,53,55,57,59,61,63,65,67,69,71,73,75,77,79,81,83,85,87,89,91,93,95,97,99,101,103,105,107,109,111,113,115,117,119,-1,-1,-1,-1,-1,-1,-1,-1,-1,-1,-1,-1,-1,-1,-1,-1,-1,-1,-1,-1,-1,-1,-1,-1,-1,-1,-1,-1,-1,-1,-1,-1,-1,-1,-1,-1,-1,-1,-1,-1,-1,-1,-1,-1,-1,-1,-1,-1,-1,-1,-1,-1,-1,-1,-1,-1,-1,-1,-1,-1],"loss_changes":[1.8699774E3,4.6444708E2,1.4584424E2,2.1082477E2,1.4425752E2,5.622609E1,3.1086914E1,1.5191016E2,6.2377964E1,1.0762832E2,1.8263702E1,3.3034428E1,5.152069E0,2.9836792E1,1.154248E1,3.4188354E1,6.674753E1,3.208953E1,1.7085545E1,6.985122E1,2.3813683E1,1.6024715E1,1.6095093E1,1.00641985E1,2.3919434E1,0E0,5.62294E0,1.4245331E1,1.3164917E1,7.6416855E0,6.584717E0,1.6226196E1,1.9358383E1,3.013739E1,2.9888186E1,7.710724E0,2.6743423E1,1.0304912E1,9.177788E0,4.8302765E1,1.8644613E1,1.0522691E1,9.181374E0,6.4756556E0,5.528225E0,1.2137695E1,3.8923645E0,3.9015732E0,6.49346E0,1.1499514E1,1.0586601E1,7.300743E0,2.098526E0,9.781658E0,3.2015839E0,4.0863776E0,4.027466E0,1.1907171E1,3.372795E0,4.968567E0,2.2061768E0,0E0,0E0,0E0,0E0,0E0,0E0,0E0,0E0,0E0,0E0,0E0,0E0,0E0,0E0,0E0,0E0,0E0,0E0,0E0,0E0,0E0,0E0,0E0,0E0,0E0,0E0,0E0,0E0,0E0,0E0,0E0,0E0,0E0,0E0,0E0,0E0,0E0,0E0,0E0,0E0,0E0,0E0,0E0,0E0,0E0,0E0,0E0,0E0,0E0,0E0,0E0,0E0,0E0,0E0,0E0,0E0,0E0,0E0,0E0,0E0],"parents":[2147483647,0,0,1,1,2,2,3,3,4,4,5,5,6,6,7,7,8,8,9,9,10,10,11,11,12,12,13,13,14,14,15,15,16,16,17,17,18,18,19,19,20,20,21,21,22,22,23,23,24,24,26,26,27,27,28,28,29,29,30,30,31,31,32,32,33,33,34,34,35,35,36,36,37,37,38,38,39,39,40,40,41,41,42,42,43,43,44,44,45,45,46,46,47,47,48,48,49,49,50,50,51,51,52,52,53,53,54,54,55,55,56,56,57,57,58,58,59,59,60,60],"right_children":[2,4,6,8,10,12,14,16,18,20,22,24,26,28,30,32,34,36,38,40,42,44,46,48,50,-1,52,54,56,58,60,62,64,66,68,70,72,74,76,78,80,82,84,86,88,90,92,94,96,98,100,102,104,106,108,110,112,114,116,118,120,-1,-1,-1,-1,-1,-1,-1,-1,-1,-1,-1,-1,-1,-1,-1,-1,-1,-1,-1,-1,-1,-1,-1,-1,-1,-1,-1,-1,-1,-1,-1,-1,-1,-1,-1,-1,-1,-1,-1,-1,-1,-1,-1,-1,-1,-1,-1,-1,-1,-1,-1,-1,-1,-1,-1,-1,-1,-1,-1,-1],"split_conditions":[3.891628E-3,2.5300941E0,5.338565E-3,1.9613692E-1,2.1363342E-2,2.3338306E-1,7.024389E-3,4.8854905E-5,3.4205237E-1,2.633512E-1,4.593785E0,3.975294E-5,1.2896648E-3,1.370319E-1,2.476855E-6,3.4138196E-4,1.668654E-3,1.0582962E-6,8.4931463E-1,2.8709413E-3,5.325675E-5,9.427736E-5,2.651394E-3,2.799029E-4,2.165806E0,-1.5216291E-1,2.3325837E0,4.538714E0,9.1599753E-7,9.5392E-3,8.711383E-3,2.6736215E-3,2.443158E-3,9.346609E-3,4.713646E-4,1.4552578E0,2.339778E-3,1.4086042E-2,3.3414364E-7,3.246844E-4,1.4191779E-4,3.0483138E-3,9.7323087E-4,1.9200165E-4,2.3494001E-2,1.1970048E0,1.9986271E-7,6.5509806E0,2.9053245E-4,5.9465267E-2,5.11282E-3,1.5658157E0,4.3730326E-3,2.820079E-4,3.3414364E-7,3.453549E-1,4.43867E-8,7.092671E0,1.1791653E1,2.3169746E-6,2.9243904E-3,1.18686356E-1,7.370151E-2,8.654804E-2,3.4552965E-2,7.809724E-2,2.7428655E-2,3.79374E-2,-1.0622353E-2,8.708608E-2,3.3928603E-2,2.9935941E-2,-2.2574663E-2,2.5163988E-2,-8.2675844E-2,4.2925745E-2,-6.630968E-2,4.423701E-2,-8.156863E-3,9.337853E-3,-5.1963832E-2,3.8678527E-2,-7.548996E-2,-2.9398892E-2,-7.338192E-2,6.758284E-2,-3.8433556E-2,-1.11047365E-2,-5.8350142E-2,-1.389939E-1,-4.9311988E-2,-5.4406207E-2,-1.2122234E-1,5.1925667E-2,-5.0591946E-2,-1.09429136E-1,-2.1531899E-3,1.4565882E-2,-3.5538808E-2,-2.3822397E-2,-7.6482385E-2,-8.893501E-2,-3.573319E-2,-8.285674E-2,-1.2859216E-1,-2.1970674E-2,-6.7237966E-2,-1.2674507E-5,-1.06080465E-1,9.319858E-2,-3.9335918E-2,-7.945645E-2,-1.177725E-1,-7.375947E-2,7.557974E-2,-1.11082554E-1,-3.6941525E-3,-4.7968373E-2,-1.15753554E-1,-1.382499E-1,-2.3971427E-2],"split_indices":[3,2,3,0,5,0,3,4,0,0,2,4,5,0,4,7,3,4,9,3,7,7,3,7,2,0,9,2,7,5,3,3,3,5,7,2,3,5,7,4,7,3,3,4,5,9,4,2,7,0,5,9,3,7,7,9,4,2,9,7,4,0,0,0,0,0,0,0,0,0,0,0,0,0,0,0,0,0,0,0,0,0,0,0,0,0,0,0,0,0,0,0,0,0,0,0,0,0,0,0,0,0,0,0,0,0,0,0,0,0,0,0,0,0,0,0,0,0,0,0,0],"split_type":[0,0,0,0,0,0,0,0,0,0,0,0,0,0,0,0,0,0,0,0,0,0,0,0,0,0,0,0,0,0,0,0,0,0,0,0,0,0,0,0,0,0,0,0,0,0,0,0,0,0,0,0,0,0,0,0,0,0,0,0,0,0,0,0,0,0,0,0,0,0,0,0,0,0,0,0,0,0,0,0,0,0,0,0,0,0,0,0,0,0,0,0,0,0,0,0,0,0,0,0,0,0,0,0,0,0,0,0,0,0,0,0,0,0,0,0,0,0,0,0,0],"sum_hessian":[7.084342E3,5.0831235E3,2.0012183E3,3.1582996E3,1.9248239E3,7.8413586E2,1.2170825E3,2.3809612E3,7.7733856E2,1.49855E3,4.2627383E2,5.735869E2,2.1054892E2,5.553761E2,6.6170636E2,1.113215E3,1.2677461E3,5.9089166E2,1.8644691E2,1.2167136E3,2.818364E2,1.4702762E2,2.7924622E2,1.26409546E2,4.4717737E2,1.4178836E1,1.9637009E2,2.574703E2,2.979058E2,1.3485709E2,5.268493E2,6.715843E2,4.4163068E2,7.0915875E2,5.5858734E2,1.3027322E2,4.6061847E2,5.7680412E1,1.287665E2,1.0011404E3,2.1557321E2,4.858431E1,2.3325209E2,2.7305866E1,1.19721756E2,2.009763E2,7.82699E1,5.5101814E1,7.130773E1,2.0760474E2,2.3957265E2,1.3187057E2,6.4499504E1,1.9391606E2,6.355425E1,1.7699577E1,2.802062E2,4.5031006E1,8.982608E1,2.6740137E2,2.594479E2,5.7083527E2,1.0074905E2,3.4925092E2,9.237976E1,5.5877905E2,1.5037968E2,3.6534125E2,1.932461E2,8.826269E1,4.201053E1,3.2305118E2,1.3756729E2,4.785185E1,9.828566E0,7.545644E0,1.21220856E2,7.738455E2,2.2729488E2,7.6372955E1,1.3920026E2,3.9468853E1,9.115457E0,6.942678E1,1.638253E2,2.0130741E1,7.1751246E0,3.5725845E1,8.399591E1,1.5901481E1,1.8507481E2,1.28322935E1,6.543761E1,5.188798E1,3.2138312E0,5.173398E0,6.613433E1,6.704354E1,1.4056119E2,4.913882E1,1.9043382E2,9.3698586E1,3.8171993E1,2.5517803E1,3.89817E1,9.0657265E1,1.032588E2,2.9839084E0,6.057034E1,1.7314588E0,1.5968118E1,4.1372623E1,2.3883357E2,3.9710526E1,5.3204784E0,8.67281E1,3.0979762E0,1.3322411E1,2.5407896E2,2.5728033E2,2.1675751E0],"tree_param":{"num_deleted":"0","num_feature":"10","num_nodes":"121","size_leaf_vector":"1"}},{"base_weights":[1.9032519E-3,3.4732732E-1,-6.389406E-1,5.321684E-1,-1.3415045E-1,-3.723922E-1,-9.653894E-1,6.9423705E-1,1.8107486E-1,4.6726834E-2,-5.440633E-1,-2.1494628E-1,-7.600992E-1,-8.2668E-1,-1.1488141E0,7.870854E-1,1.1704397E-1,2.8076524E-1,-4.3716002E-1,2.5493252E-1,-3.1507558E-1,-4.3641973E-1,-8.580109E-1,-2.895161E-3,-4.6612492E-1,-6.768332E-1,-1.1128534E0,-4.9002773E-1,-9.009649E-1,-8.5482764E-1,-1.1994816E0,8.537483E-1,4.4033244E-1,3.408882E-1,-1.779924E-1,4.9008688E-1,6.588563E-2,-2.691452E-1,-9.5853573E-1,4.527667E-1,-2.7070185E-3,-8.447755E-1,-2.2608022E-1,-1.0568653E0,-3.7073886E-1,-6.8975925E-1,-1.1681464E0,3.919179E-1,-1.03039175E-1,2.0045817E-2,-5.468052E-1,-3.9739993E-1,-7.5093013E-1,-7.139391E-1,-1.1963805E0,5.6265503E-1,-5.777102E-1,-8.0055624E-1,-1.2067784E0,-1.6098876E-1,-9.6915805E-1,-1.1273865E0,-1.3364065E-1,9.575655E-2,6.4633146E-2,5.0156664E-2,-2.6858741E-2,-2.724566E-2,4.11717E-2,3.14653E-2,-4.0312763E-2,5.5710096E-2,-1.43441735E-2,1.6103154E-2,-4.2210255E-2,-1.9195753E-3,-5.993187E-2,-1.1039933E-1,3.7961066E-2,5.9135266E-2,9.983113E-3,2.7908593E-2,-2.5470695E-2,-2.3354797E-2,-1.08987406E-1,1.8426094E-2,-3.3493962E-2,-1.1777278E-1,-3.2136098E-2,-1.2165984E-2,-5.9156206E-2,1.5655048E-2,-7.4326575E-2,-7.4992605E-2,-1.264591E-1,6.863557E-2,-1.0470507E-2,-5.214892E-3,-9.746925E-2,7.661964E-2,-2.1326503E-2,-4.22604E-2,-8.6522445E-2,6.255173E-2,-4.8602205E-2,-5.4675467E-2,-9.219381E-2,4.9873423E-2,-1.0064687E-1,-1.22074045E-1,-2.111159E-2,7.952095E-2,-5.4008234E-2,7.2592893E-3,-6.9725506E-2,4.051408E-3,-8.207217E-2,8.303959E-3,-1.219512E-1,-9.599124E-2,4.0458124E-2,1.4447507E-2,-9.982853E-2,-1.0784682E-1,-1.3249318E-1],"categories":[],"categories_nodes":[],"categories_segments":[],"categories_sizes":[],"default_left":[0,0,0,0,0,0,0,0,0,0,0,0,0,0,0,0,0,0,0,0,0,0,0,0,0,0,0,0,0,0,0,0,0,0,0,0,0,0,0,0,0,0,0,0,0,0,0,0,0,0,0,0,0,0,0,0,0,0,0,0,0,0,0,0,0,0,0,0,0,0,0,0,0,0,0,0,0,0,0,0,0,0,0,0,0,0,0,0,0,0,0,0,0,0,0,0,0,0,0,0,0,0,0,0,0,0,0,0,0,0,0,0,0,0,0,0,0,0,0,0,0,0,0,0,0],"id":6,"left_children":[1,3,5,7,9,11,13,15,17,19,21,23,25,27,29,31,33,35,37,39,41,43,45,47,49,51,53,55,57,59,61,63,65,67,69,71,73,75,77,79,81,83,85,87,89,91,93,95,97,99,101,103,105,107,109,111,113,115,117,119,121,123,-1,-1,-1,-1,-1,-1,-1,-1,-1,-1,-1,-1,-1,-1,-1,-1,-1,-1,-1,-1,-1,-1,-1,-1,-1,-1,-1,-1,-1,-1,-1,-1,-1,-1,-1,-1,-1,-1,-1,-1,-1,-1,-1,-1,-1,-1,-1,-1,-1,-1,-1,-1,-1,-1,-1,-1,-1,-1,-1,-1,-1,-1,-1],"loss_changes":[1.5374791E3,4.017107E2,2.1130762E2,1.8544263E2,9.290717E1,8.168074E1,2.685382E1,1.19465576E2,6.368559E1,6.562495E1,1.2589584E1,5.0860897E1,1.0609009E1,1.5208771E1,5.9454956E0,4.4042847E1,2.055451E1,3.9941742E1,1.2321224E1,2.8179333E1,1.4812515E1,1.1332462E1,4.251198E0,2.0552866E1,1.7157112E1,6.234314E0,1.5555878E0,1.0969206E1,1.4739746E1,5.5775948E0,2.4094849E0,3.4064453E1,1.3675209E1,7.7922935E0,1.5047371E1,1.9186104E1,2.0483131E1,9.065863E0,7.155136E0,1.5236679E1,1.7193325E1,6.549225E0,1.2294637E1,2.021738E0,1.4322269E1,3.0719547E0,3.6829758E-1,1.5451284E1,1.8341398E1,1.1162369E1,1.4462807E1,6.491337E0,8.164047E0,5.8234496E0,1.1420059E0,2.833269E0,8.36459E0,6.614456E0,2.14534E0,5.550403E0,2.150589E0,1.1441956E0,0E0,0E0,0E0,0E0,0E0,0E0,0E0,0E0,0E0,0E0,0E0,0E0,0E0,0E0,0E0,0E0,0E0,0E0,0E0,0E0,0E0,0E0,0E0,0E0,0E0,0E0,0E0,0E0,0E0,0E0,0E0,0E0,0E0,0E0,0E0,0E0,0E0,0E0,0E0,0E0,0E0,0E0,0E0,0E0,0E0,0E0,0E0,0E0,0E0,0E0,0E0,0E0,0E0,0E0,0E0,0E0,0E0,0E0,0E0,0E0,0E0,0E0,0E0],"parents":[2147483647,0,0,1,1,2,2,3,3,4,4,5,5,6,6,7,7,8,8,9,9,10,10,11,11,12,12,13,13,14,14,15,15,16,16,17,17,18,18,19,19,20,20,21,21,22,22,23,23,24,24,25,25,26,26,27,27,28,28,29,29,30,30,31,31,32,32,33,33,34,34,35,35,36,36,37,37,38,38,39,39,40,40,41,41,42,42,43,43,44,44,45,45,46,46,47,47,48,48,49,49,50,50,51,51,52,52,53,53,54,54,55,55,56,56,57,57,58,58,59,59,60,60,61,61],"right_children":[2,4,6,8,10,12,14,16,18,20,22,24,26,28,30,32,34,36,38,40,42,44,46,48,50,52,54,56,58,60,62,64,66,68,70,72,74,76,78,80,82,84,86,88,90,92,94,96,98,100,102,104,106,108,110,112,114,116,118,120,122,124,-1,-1,-1,-1,-1,-1,-1,-1,-1,-1,-1,-1,-1,-1,-1,-1,-1,-1,-1,-1,-1,-1,-1,-1,-1,-1,-1,-1,-1,-1,-1,-1,-1,-1,-1,-1,-1,-1,-1,-1,-1,-1,-1,-1,-1,-1,-1,-1,-1,-1,-1,-1,-1,-1,-1,-1,-1,-1,-1,-1,-1,-1,-1],"split_conditions":[3.270544E-3,3.283047E0,5.521192E-3,1.6816912E-4,1.9554181E-2,2.1811028E-1,1.8162936E-1,2.555268E-1,7.5443406E0,1.7685556E-1,3.218106E-2,2.5033116E0,1.3593166E1,1.9986271E-7,4.43867E-8,2.3852962E-3,3.3739513E-1,1.386312E-3,4.0049824E-1,1.5546823E-3,1.0050377E0,1.6862003E0,1.0919276E1,7.252936E-7,4.43867E-8,4.334448E-5,3.6623818E-3,1.6237369E-1,8.922604E-3,2.7002385E0,8.517304E-3,4.8854905E-5,1.7716534E-2,2.0146961E0,8.9446395E-8,1.480822E-2,1.3391713E-2,3.7320395E-4,3.0186293E0,2.5143685E0,1.3941168E-4,2.2664607E-1,3.9189742E0,4.7167586E-4,1.3941168E-4,3.517743E0,6.6345796E-4,4.4175917E-3,1.9804135E-2,3.7302606E-2,1.9804135E-2,2.2664607E-1,4.1469675E-3,8.122502E-3,2.9243904E-3,3.2732346E0,5.9741167E-3,4.105284E-4,1.7177984E-3,9.8297906E-1,1.8513232E-1,6.183243E0,-1.3364065E-1,9.575655E-2,6.4633146E-2,5.0156664E-2,-2.6858741E-2,-2.724566E-2,4.11717E-2,3.14653E-2,-4.0312763E-2,5.5710096E-2,-1.43441735E-2,1.6103154E-2,-4.2210255E-2,-1.9195753E-3,-5.993187E-2,-1.1039933E-1,3.7961066E-2,5.9135266E-2,9.983113E-3,2.7908593E-2,-2.5470695E-2,-2.3354797E-2,-1.08987406E-1,1.8426094E-2,-3.3493962E-2,-1.1777278E-1,-3.2136098E-2,-1.2165984E-2,-5.9156206E-2,1.5655048E-2,-7.4326575E-2,-7.4992605E-2,-1.264591E-1,6.863557E-2,-1.0470507E-2,-5.214892E-3,-9.746925E-2,7.661964E-2,-2.1326503E-2,-4.22604E-2,-8.6522445E-2,6.255173E-2,-4.8602205E-2,-5.4675467E-2,-9.219381E-2,4.9873423E-2,-1.0064687E-1,-1.22074045E-1,-2.111159E-2,7.952095E-2,-5.4008234E-2,7.2592893E-3,-6.9725506E-2,4.051408E-3,-8.207217E-2,8.303959E-3,-1.219512E-1,-9.599124E-2,4.0458124E-2,1.4447507E-2,-9.982853E-2,-1.0784682E-1,-1.3249318E-1],"split_indices":[3,2,3,4,5,0,0,0,8,0,5,2,8,4,4,3,0,3,0,3,9,8,8,4,4,4,3,9,3,8,3,4,5,8,4,5,5,4,2,9,4,0,2,4,4,2,3,3,5,0,5,0,3,5,4,8,3,5,0,8,9,2,0,0,0,0,0,0,0,0,0,0,0,0,0,0,0,0,0,0,0,0,0,0,0,0,0,0,0,0,0,0,0,0,0,0,0,0,0,0,0,0,0,0,0,0,0,0,0,0,0,0,0,0,0,0,0,0,0,0,0,0,0,0,0],"split_type":[0,0,0,0,0,0,0,0,0,0,0,0,0,0,0,0,0,0,0,0,0,0,0,0,0,0,0,0,0,0,0,0,0,0,0,0,0,0,0,0,0,0,0,0,0,0,0,0,0,0,0,0,0,0,0,0,0,0,0,0,0,0,0,0,0,0,0,0,0,0,0,0,0,0,0,0,0,0,0,0,0,0,0,0,0,0,0,0,0,0,0,0,0,0,0,0,0,0,0,0,0,0,0,0,0,0,0,0,0,0,0,0,0,0,0,0,0,0,0,0,0,0,0,0,0],"sum_hessian":[6.943512E3,4.511959E3,2.431553E3,3.2602368E3,1.2517222E3,1.3397644E3,1.0917887E3,2.2299092E3,1.0303276E3,8.6910767E2,3.8261456E2,9.539317E2,3.8583267E2,6.2480536E2,4.6698334E2,1.9205948E3,3.0931424E2,8.877275E2,1.4260019E2,5.5183795E2,3.172697E2,2.8670258E2,9.591199E1,5.1780206E2,4.361296E2,3.1451227E2,7.13204E1,1.1431895E2,5.104864E2,7.127839E1,3.9570496E2,1.6096746E3,3.109203E2,1.7578822E2,1.3352602E2,4.4903052E2,4.3869696E2,1.0899309E2,3.360711E1,3.1171976E2,2.401182E2,4.441564E1,2.7285406E2,2.6000582E1,2.60702E2,6.42693E1,3.1642689E1,1.0417671E2,4.1362537E2,6.2181576E1,3.7394803E2,6.725276E1,2.472595E2,1.40009775E1,5.731942E1,8.373457E0,1.0594549E2,3.8702966E2,1.23456726E2,1.0424307E1,6.085408E1,2.6526727E2,1.3043768E2,1.0703309E3,5.393436E2,2.8646857E2,2.4451729E1,1.7903708E1,1.5788452E2,4.175634E1,9.176967E1,4.0618527E2,4.284527E1,3.6767856E2,7.101842E1,6.2634995E1,4.635809E1,3.0469982E1,3.1371274E0,2.2334438E2,8.837539E1,1.13307396E2,1.268108E2,1.3271646E1,3.1143995E1,5.706335E1,2.1579071E2,2.1814617E1,4.1859646E0,1.2324164E2,1.3746036E2,3.707181E0,6.056212E1,7.574137E0,2.4068552E1,6.5161644E1,3.9015068E1,3.918099E2,2.1815447E1,1.4267792E1,4.7913784E1,2.7069077E2,1.0325725E2,4.878987E0,6.2373775E1,1.1461357E2,1.3264594E2,2.584034E0,1.1416944E1,5.5703197E1,1.6162204E0,7.145443E0,1.2280138E0,1.6512587E1,8.943291E1,9.038471E0,3.7799118E2,1.1529208E0,1.2230381E2,4.031776E0,6.3925304E0,1.450138E0,5.9403942E1,2.1779417E2,4.7473095E1],"tree_param":{"num_deleted":"0","num_feature":"10","num_nodes":"125","size_leaf_vector":"1"}},{"base_weights":[-2.6079747E-3,2.951322E-1,-6.853879E-1,5.0329876E-1,-5.675088E-1,-3.9079946E-1,-1.0333991E0,6.4988476E-1,9.062312E-2,-4.3915334E-1,-9.2030644E-1,-1.644296E-1,-9.6477777E-1,-8.6022973E-1,-1.2169032E0,7.5334615E-1,2.617941E-1,2.2137187E-1,-3.1378865E-1,-2.669469E-1,-6.5240175E-1,-7.830434E-1,-1.1255313E0,4.9173895E-1,-2.2551842E-1,-2.6897383E-1,-1.0489717E0,-6.709196E-1,-1.1554564E0,-1.1170664E0,-1.3451024E0,8.797092E-1,5.564801E-1,4.5802835E-1,2.641406E-2,4.667793E-1,5.7844926E-2,3.630739E-1,-3.6762893E-1,-9.4795264E-2,-6.428375E-1,8.865509E-1,-6.7251104E-1,-4.6777368E-1,-8.839563E-1,-1.1659229E0,-3.2531658E-1,-6.6211E-3,6.540944E-1,-8.1912495E-2,-4.4506776E-1,2.2686498E-1,-6.087709E-1,-9.226742E-1,-1.288961E0,-2.4419676E-1,-8.080452E-1,-9.9059093E-1,-1.2370613E0,-1.2345184E0,-9.4597316E-1,-4.6114638E-1,-1.383281E-1,1.01794295E-1,7.4902095E-2,8.1333436E-2,3.938267E-2,7.031013E-2,3.136847E-2,2.2538558E-2,-2.8236166E-2,5.2704174E-2,-4.138888E-3,1.3387059E-2,-6.6314794E-2,9.24015E-2,-2.0866206E-2,-1.9947989E-2,-5.8813352E-2,9.801837E-3,-4.4377107E-2,6.7655064E-2,-6.871569E-2,1.21051334E-1,7.133583E-4,-5.5720218E-2,-9.394818E-2,1.4340461E-3,-6.708584E-2,-2.3768164E-2,-9.232982E-2,-1.179193E-1,-3.39485E-2,3.6289018E-2,-8.5814536E-2,2.738448E-2,-6.81726E-2,7.03526E-2,-5.112147E-2,1.0900362E-2,-2.5766596E-2,-2.8927041E-2,-6.1985046E-2,-4.26397E-2,8.044338E-2,-2.2088973E-2,-8.8759504E-2,-8.576852E-2,-1.2210043E-1,-7.435837E-4,-1.3162081E-1,-9.770398E-2,-7.4668312E-3,-3.6847185E-2,-9.1182E-2,-1.0638901E-1,-1.018007E-2,-1.3915953E-1,-1.1479918E-1,-7.551704E-2,-1.2743749E-1,-6.6585094E-2,-1.12781696E-1,-9.0254724E-2,5.3422328E-2],"categories":[],"categories_nodes":[],"categories_segments":[],"categories_sizes":[],"default_left":[0,0,0,0,0,0,0,0,0,0,0,0,0,0,0,0,0,0,0,0,0,0,0,0,0,0,0,0,0,0,0,0,0,0,0,0,0,0,0,0,0,0,0,0,0,0,0,0,0,0,0,0,0,0,0,0,0,0,0,0,0,0,0,0,0,0,0,0,0,0,0,0,0,0,0,0,0,0,0,0,0,0,0,0,0,0,0,0,0,0,0,0,0,0,0,0,0,0,0,0,0,0,0,0,0,0,0,0,0,0,0,0,0,0,0,0,0,0,0,0,0,0,0,0,0],"id":7,"left_children":[1,3,5,7,9,11,13,15,17,19,21,23,25,27,29,31,33,35,37,39,41,43,45,47,49,51,53,55,57,59,61,63,65,67,69,71,73,75,77,79,81,83,85,87,89,91,93,95,97,99,101,103,105,107,109,111,113,115,117,119,121,123,-1,-1,-1,-1,-1,-1,-1,-1,-1,-1,-1,-1,-1,-1,-1,-1,-1,-1,-1,-1,-1,-1,-1,-1,-1,-1,-1,-1,-1,-1,-1,-1,-1,-1,-1,-1,-1,-1,-1,-1,-1,-1,-1,-1,-1,-1,-1,-1,-1,-1,-1,-1,-1,-1,-1,-1,-1,-1,-1,-1,-1,-1,-1],"loss_changes":[1.400061E3,8.6146704E2,2.1399292E2,2.3368115E2,4.1834717E1,1.4720575E2,2.9398926E1,1.142782E2,5.3682285E1,2.5012024E1,6.1024475E0,3.2763306E1,1.8498383E1,2.6964935E1,4.420227E0,5.5493164E1,2.7776203E1,3.0745045E1,9.176071E0,2.460202E1,1.0057358E1,4.417366E0,2.7583466E0,5.643284E0,2.3480572E1,6.1949377E0,7.4682617E0,1.7638123E1,1.3649292E0,4.1786194E0,6.0341797E0,2.3967651E1,3.6548798E1,1.1383331E1,1.693353E1,9.407562E0,2.5374792E1,6.217764E0,8.4234085E0,1.7711903E1,7.455387E0,1.2376819E0,8.7838745E0,3.8224049E0,2.6765594E0,6.08902E-1,2.5304694E0,3.6167257E0,3.388279E0,1.5200091E1,7.8464203E0,6.133302E0,2.1402483E0,2.649414E0,3.3412018E0,9.314447E0,1.0166946E1,4.371704E0,1.1982727E-1,1.9889679E0,4.983467E0,4.737511E0,0E0,0E0,0E0,0E0,0E0,0E0,0E0,0E0,0E0,0E0,0E0,0E0,0E0,0E0,0E0,0E0,0E0,0E0,0E0,0E0,0E0,0E0,0E0,0E0,0E0,0E0,0E0,0E0,0E0,0E0,0E0,0E0,0E0,0E0,0E0,0E0,0E0,0E0,0E0,0E0,0E0,0E0,0E0,0E0,0E0,0E0,0E0,0E0,0E0,0E0,0E0,0E0,0E0,0E0,0E0,0E0,0E0,0E0,0E0,0E0,0E0,0E0,0E0],"parents":[2147483647,0,0,1,1,2,2,3,3,4,4,5,5,6,6,7,7,8,8,9,9,10,10,11,11,12,12,13,13,14,14,15,15,16,16,17,17,18,18,19,19,20,20,21,21,22,22,23,23,24,24,25,25,26,26,27,27,28,28,29,29,30,30,31,31,32,32,33,33,34,34,35,35,36,36,37,37,38,38,39,39,40,40,41,41,42,42,43,43,44,44,45,45,46,46,47,47,48,48,49,49,50,50,51,51,52,52,53,53,54,54,55,55,56,56,57,57,58,58,59,59,60,60,61,61],"right_children":[2,4,6,8,10,12,14,16,18,20,22,24,26,28,30,32,34,36,38,40,42,44,46,48,50,52,54,56,58,60,62,64,66,68,70,72,74,76,78,80,82,84,86,88,90,92,94,96,98,100,102,104,106,108,110,112,114,116,118,120,122,124,-1,-1,-1,-1,-1,-1,-1,-1,-1,-1,-1,-1,-1,-1,-1,-1,-1,-1,-1,-1,-1,-1,-1,-1,-1,-1,-1,-1,-1,-1,-1,-1,-1,-1,-1,-1,-1,-1,-1,-1,-1,-1,-1,-1,-1,-1,-1,-1,-1,-1,-1,-1,-1,-1,-1,-1,-1,-1,-1,-1,-1,-1,-1],"split_conditions":[3.6302906E-2,4.4654566E-3,5.5936787E-2,1.2418085E-2,7.7259038E-3,4.4175917E-3,7.38528E-2,2.724701E-3,2.3149302E-2,4.225749E-4,5.871726E0,3.3414364E-7,4.7016783E-5,3.891628E-3,9.2493385E-2,1.6584512E0,3.270111E-4,1.8980539E-4,2.3169746E-6,5.9765544E0,2.8932927E-4,9.107714E-3,1.9789316E1,1.00885496E-1,2.2077886E-3,6.136942E-3,7.3482366E-3,1.358392E-4,2.3485842E-4,9.847991E0,7.020472E-2,2.337541E-4,1.4266187E-4,2.2683294E0,1.8308697E-2,6.6937757E0,1.1086587E1,4.4780016E0,1.8479334E-2,1.9866887E-2,1.1358707E-3,3.911144E0,3.828436E0,7.6337205E-3,1.5840118E-7,5.9258533E-3,2.2479456E-2,2.8411835E-3,3.4402072E-2,2.0167851E0,4.2595484E-4,5.1344815E-3,2.9910727E0,5.9823575E0,2.0162581E-1,1.11602314E-1,6.309989E-4,1.9112458E-4,1.8375562E0,4.9267535E-4,2.700958E-3,5.482143E-2,-1.383281E-1,1.01794295E-1,7.4902095E-2,8.1333436E-2,3.938267E-2,7.031013E-2,3.136847E-2,2.2538558E-2,-2.8236166E-2,5.2704174E-2,-4.138888E-3,1.3387059E-2,-6.6314794E-2,9.24015E-2,-2.0866206E-2,-1.9947989E-2,-5.8813352E-2,9.801837E-3,-4.4377107E-2,6.7655064E-2,-6.871569E-2,1.21051334E-1,7.133583E-4,-5.5720218E-2,-9.394818E-2,1.4340461E-3,-6.708584E-2,-2.3768164E-2,-9.232982E-2,-1.179193E-1,-3.39485E-2,3.6289018E-2,-8.5814536E-2,2.738448E-2,-6.81726E-2,7.03526E-2,-5.112147E-2,1.0900362E-2,-2.5766596E-2,-2.8927041E-2,-6.1985046E-2,-4.26397E-2,8.044338E-2,-2.2088973E-2,-8.8759504E-2,-8.576852E-2,-1.2210043E-1,-7.435837E-4,-1.3162081E-1,-9.770398E-2,-7.4668312E-3,-3.6847185E-2,-9.1182E-2,-1.0638901E-1,-1.018007E-2,-1.3915953E-1,-1.1479918E-1,-7.551704E-2,-1.2743749E-1,-6.6585094E-2,-1.12781696E-1,-9.0254724E-2,5.3422328E-2],"split_indices":[1,3,1,5,3,3,1,3,5,7,8,7,7,3,1,2,7,7,7,8,1,1,2,0,3,3,3,7,7,8,0,7,7,8,1,2,8,2,1,1,1,8,2,5,7,7,1,3,5,2,7,3,2,2,2,0,3,7,2,3,3,0,0,0,0,0,0,0,0,0,0,0,0,0,0,0,0,0,0,0,0,0,0,0,0,0,0,0,0,0,0,0,0,0,0,0,0,0,0,0,0,0,0,0,0,0,0,0,0,0,0,0,0,0,0,0,0,0,0,0,0,0,0,0,0],"split_type":[0,0,0,0,0,0,0,0,0,0,0,0,0,0,0,0,0,0,0,0,0,0,0,0,0,0,0,0,0,0,0,0,0,0,0,0,0,0,0,0,0,0,0,0,0,0,0,0,0,0,0,0,0,0,0,0,0,0,0,0,0,0,0,0,0,0,0,0,0,0,0,0,0,0,0,0,0,0,0,0,0,0,0,0,0,0,0,0,0,0,0,0,0,0,0,0,0,0,0,0,0,0,0,0,0,0,0,0,0,0,0,0,0,0,0,0,0,0,0,0,0,0,0,0,0],"sum_hessian":[6.8849844E3,4.794718E3,2.0902668E3,3.8629531E3,9.317645E2,1.1331708E3,9.570962E2,2.8500247E3,1.01292847E3,6.84847E2,2.4691754E2,8.1358826E2,3.1958255E2,4.9534036E2,4.617558E2,2.2494111E3,6.006135E2,7.65795E2,2.4713351E2,3.8012946E2,3.0471756E2,1.5084293E2,9.6074615E1,6.86929E1,7.448953E2,3.4948864E1,2.8463367E2,3.038032E2,1.9153719E2,2.650546E2,1.9670119E2,1.3679148E3,8.814962E2,3.2702762E2,2.735859E2,3.0548877E2,4.6030618E2,1.7786303E1,2.2934721E2,2.615816E2,1.1854783E2,3.3746061E0,3.0134296E2,3.7941734E1,1.12901184E2,9.102313E1,5.051483E0,1.7115387E1,5.1577515E1,4.5116446E2,2.937309E2,1.4346505E1,2.060236E1,1.8966486E2,9.496883E1,7.4559975E1,2.2924321E2,6.776704E1,1.2377016E2,1.5347896E2,1.11575645E2,8.685403E0,1.880158E2,6.6146735E2,7.064475E2,3.4022665E2,5.412696E2,1.1978329E2,2.0724432E2,1.665397E2,1.070462E2,2.7306903E2,3.2419735E1,4.1713535E2,4.3170834E1,8.666893E0,9.11941E0,1.3120189E2,9.814532E1,1.6895238E2,9.262924E1,3.3890936E0,1.1515873E2,2.1909883E0,1.1836178E0,2.1260333E2,8.873963E1,1.1520932E1,2.6420803E1,6.8825226E0,1.0601866E2,8.916457E1,1.858559E0,2.3435142E0,2.7079687E0,1.2511833E1,4.6035547E0,4.9858814E1,1.7186992E0,2.1643591E2,2.3472853E2,1.5670374E2,1.3702716E2,6.8549356E0,7.491569E0,9.365679E0,1.1236681E1,1.5892023E2,3.0744623E1,2.0036278E0,9.29652E1,1.31126995E1,6.1447277E1,4.4652588E1,1.8459062E2,6.242204E1,5.3449936E0,3.9907547E1,8.386261E1,1.3312975E1,1.4016597E2,4.575452E1,6.582113E1,6.081701E0,2.6037018E0],"tree_param":{"num_deleted":"0","num_feature":"10","num_nodes":"125","size_leaf_vector":"1"}},{"base_weights":[6.515243E-5,2.3650981E-1,-6.5840924E-1,4.276976E-1,-1.0281926E-1,-5.0091267E-1,-9.3014336E-1,7.014849E-1,2.3280296E-1,8.520853E-5,-5.656043E-1,-2.9911798E-1,-6.869098E-1,-6.020091E-1,-9.990272E-1,7.830626E-1,1.1367559E-1,3.2249314E-1,-4.466595E-1,2.0016181E-1,-2.0133787E-1,-3.349974E-1,-7.3737544E-1,-1.2509231E-1,-6.1551464E-1,-3.7341192E-1,-7.73894E-1,-2.950326E-1,-8.5375756E-1,-6.333748E-1,-1.0458771E0,8.6579823E-1,3.9626527E-1,6.8332493E-1,-3.5427652E-2,4.706084E-1,5.491128E-2,-2.9301283E-1,-9.476152E-1,4.756531E-1,-2.3682456E-2,3.030794E-1,-2.623034E-1,-2.229799E-1,-9.627757E-1,-3.492296E-1,-8.3044267E-1,1.2864554E-1,-3.5838243E-1,3.610173E-1,-6.8129504E-1,3.897073E-2,-6.369783E-1,-5.9795314E-1,-9.5411026E-1,-9.2833483E-1,-1.3315792E-1,-1.0231119E0,-3.60464E-1,-4.1652155E-1,-9.385191E-1,-9.4416195E-1,-1.1332814E0,9.2562065E-2,6.258008E-2,6.566774E-2,1.3472511E-2,9.415408E-2,2.9346809E-2,1.9238634E-2,-4.212274E-2,5.7790708E-2,1.6938983E-2,1.6953643E-2,-3.2746986E-2,2.5150118E-2,-4.185575E-2,3.0599764E-2,-9.965204E-2,5.5139285E-2,2.2984823E-4,2.333104E-2,-1.9871019E-2,1.1549161E-1,1.9314095E-2,-6.039397E-3,-3.9358433E-2,-7.688021E-3,-6.146388E-2,1.7854357E-2,-1.0645687E-1,-5.396646E-2,6.1493594E-2,-8.8212274E-2,-2.7634233E-2,3.077951E-2,-3.1477135E-2,1.07479775E-2,-4.573777E-2,1.149978E-1,-1.8873973E-3,-3.9140806E-2,-7.984553E-2,1.6526153E-2,-6.389623E-2,-1.0872076E-2,-7.0826285E-2,1.9665997E-2,-6.420234E-2,-3.6532197E-2,-9.9383265E-2,-2.9401718E-2,-1.2336858E-1,3.641939E-2,-4.6615764E-2,-1.129952E-1,-4.9415857E-2,-4.5854997E-2,5.740443E-2,-9.959333E-4,-8.143576E-2,-1.075091E-1,-3.7123494E-2,-8.409057E-2,-1.08133875E-1,-7.634519E-2,-1.156291E-1],"categories":[],"categories_nodes":[],"categories_segments":[],"categories_sizes":[],"default_left":[0,0,0,0,0,0,0,0,0,0,0,0,0,0,0,0,0,0,0,0,0,0,0,0,0,0,0,0,0,0,0,0,0,0,0,0,0,0,0,0,0,0,0,0,0,0,0,0,0,0,0,0,0,0,0,0,0,0,0,0,0,0,0,0,0,0,0,0,0,0,0,0,0,0,0,0,0,0,0,0,0,0,0,0,0,0,0,0,0,0,0,0,0,0,0,0,0,0,0,0,0,0,0,0,0,0,0,0,0,0,0,0,0,0,0,0,0,0,0,0,0,0,0,0,0,0,0],"id":8,"left_children":[1,3,5,7,9,11,13,15,17,19,21,23,25,27,29,31,33,35,37,39,41,43,45,47,49,51,53,55,57,59,61,63,65,67,69,71,73,75,77,79,81,83,85,87,89,91,93,95,97,99,101,103,105,107,109,111,113,115,117,119,121,123,125,-1,-1,-1,-1,-1,-1,-1,-1,-1,-1,-1,-1,-1,-1,-1,-1,-1,-1,-1,-1,-1,-1,-1,-1,-1,-1,-1,-1,-1,-1,-1,-1,-1,-1,-1,-1,-1,-1,-1,-1,-1,-1,-1,-1,-1,-1,-1,-1,-1,-1,-1,-1,-1,-1,-1,-1,-1,-1,-1,-1,-1,-1,-1,-1],"loss_changes":[1.0540186E3,3.2320282E2,7.608331E1,1.6985535E2,8.552727E1,4.2376495E1,1.4206848E1,6.342206E1,1.13665436E2,5.9290936E1,1.2694046E1,2.9981937E1,1.5788849E1,8.726971E0,8.587341E0,3.6871582E1,1.3833357E1,6.521661E1,1.6474068E1,4.5526894E1,2.2625444E1,9.721613E0,6.4434967E0,2.0968746E1,1.2673416E1,1.4153612E1,1.4033966E1,5.3997383E0,4.919922E0,3.8348465E0,3.1715698E0,1.3162537E1,1.3993206E1,3.1238708E0,1.1489715E1,3.414534E1,2.5813412E1,1.15901E1,3.409336E0,1.186277E1,1.8406027E1,7.223966E0,1.7328457E1,6.888161E0,2.6406517E0,7.2679534E0,4.0408936E0,1.3604814E1,8.553888E0,3.8770356E0,5.855217E0,4.52587E0,2.9115257E0,8.381744E0,4.919327E0,1.729229E0,7.4698186E0,2.0742035E0,1.8877897E0,6.3208127E0,1.59445E0,2.2987518E0,1.2583008E0,0E0,0E0,0E0,0E0,0E0,0E0,0E0,0E0,0E0,0E0,0E0,0E0,0E0,0E0,0E0,0E0,0E0,0E0,0E0,0E0,0E0,0E0,0E0,0E0,0E0,0E0,0E0,0E0,0E0,0E0,0E0,0E0,0E0,0E0,0E0,0E0,0E0,0E0,0E0,0E0,0E0,0E0,0E0,0E0,0E0,0E0,0E0,0E0,0E0,0E0,0E0,0E0,0E0,0E0,0E0,0E0,0E0,0E0,0E0,0E0,0E0,0E0,0E0,0E0],"parents":[2147483647,0,0,1,1,2,2,3,3,4,4,5,5,6,6,7,7,8,8,9,9,10,10,11,11,12,12,13,13,14,14,15,15,16,16,17,17,18,18,19,19,20,20,21,21,22,22,23,23,24,24,25,25,26,26,27,27,28,28,29,29,30,30,31,31,32,32,33,33,34,34,35,35,36,36,37,37,38,38,39,39,40,40,41,41,42,42,43,43,44,44,45,45,46,46,47,47,48,48,49,49,50,50,51,51,52,52,53,53,54,54,55,55,56,56,57,57,58,58,59,59,60,60,61,61,62,62],"right_children":[2,4,6,8,10,12,14,16,18,20,22,24,26,28,30,32,34,36,38,40,42,44,46,48,50,52,54,56,58,60,62,64,66,68,70,72,74,76,78,80,82,84,86,88,90,92,94,96,98,100,102,104,106,108,110,112,114,116,118,120,122,124,126,-1,-1,-1,-1,-1,-1,-1,-1,-1,-1,-1,-1,-1,-1,-1,-1,-1,-1,-1,-1,-1,-1,-1,-1,-1,-1,-1,-1,-1,-1,-1,-1,-1,-1,-1,-1,-1,-1,-1,-1,-1,-1,-1,-1,-1,-1,-1,-1,-1,-1,-1,-1,-1,-1,-1,-1,-1,-1,-1,-1,-1,-1,-1,-1],"split_conditions":[4.0594717E-3,2.7169037E0,6.7896782E-3,4.7346242E-5,2.8934038E-1,1.3059749E-1,8.9446395E-8,2.688887E-1,7.5443406E0,1.3941168E-4,2.8523424E-4,3.2159157E0,4.5784196E-5,4.9903865E0,4.708098E-5,8.814251E-4,9.348415E-5,2.057269E-3,4.0049824E-1,2.3790638E-4,5.7853595E-7,4.9880436E-1,6.4866926E-4,2.820079E-4,3.3414364E-7,2.799029E-4,5.1344815E-3,8.3695215E-1,3.5761788E0,8.922604E-3,8.336798E-3,2.5160643E-3,1.4034053E-3,4.43867E-8,2.2700727E-3,5.690926E-4,7.5350853E-4,9.330099E-5,5.316843E-1,3.2032493E-3,3.9622884E0,2.9910727E0,1.3303809E-3,1.3871072E1,3.050473E0,5.5350317E-4,3.8852221E-3,4.0584216E0,1.9986271E-7,1.218583E0,4.702784E-5,1.1952385E1,2.717598E-1,1.5840118E-7,5.7853595E-7,1.3664324E0,5.3894705E-1,1.2353022E-3,3.0682664E-3,1.8668907E-4,4.6777062E-4,1.8162936E-1,9.330099E-5,9.2562065E-2,6.258008E-2,6.566774E-2,1.3472511E-2,9.415408E-2,2.9346809E-2,1.9238634E-2,-4.212274E-2,5.7790708E-2,1.6938983E-2,1.6953643E-2,-3.2746986E-2,2.5150118E-2,-4.185575E-2,3.0599764E-2,-9.965204E-2,5.5139285E-2,2.2984823E-4,2.333104E-2,-1.9871019E-2,1.1549161E-1,1.9314095E-2,-6.039397E-3,-3.9358433E-2,-7.688021E-3,-6.146388E-2,1.7854357E-2,-1.0645687E-1,-5.396646E-2,6.1493594E-2,-8.8212274E-2,-2.7634233E-2,3.077951E-2,-3.1477135E-2,1.07479775E-2,-4.573777E-2,1.149978E-1,-1.8873973E-3,-3.9140806E-2,-7.984553E-2,1.6526153E-2,-6.389623E-2,-1.0872076E-2,-7.0826285E-2,1.9665997E-2,-6.420234E-2,-3.6532197E-2,-9.9383265E-2,-2.9401718E-2,-1.2336858E-1,3.641939E-2,-4.6615764E-2,-1.129952E-1,-4.9415857E-2,-4.5854997E-2,5.740443E-2,-9.959333E-4,-8.143576E-2,-1.075091E-1,-3.7123494E-2,-8.409057E-2,-1.08133875E-1,-7.634519E-2,-1.156291E-1],"split_indices":[3,2,3,4,0,0,4,0,8,4,7,2,4,8,7,7,7,3,0,7,7,0,3,7,7,7,3,8,9,3,3,3,3,4,3,7,7,7,9,3,2,2,3,8,2,3,7,8,4,9,4,8,9,7,7,2,9,7,7,4,4,0,7,0,0,0,0,0,0,0,0,0,0,0,0,0,0,0,0,0,0,0,0,0,0,0,0,0,0,0,0,0,0,0,0,0,0,0,0,0,0,0,0,0,0,0,0,0,0,0,0,0,0,0,0,0,0,0,0,0,0,0,0,0,0,0,0],"split_type":[0,0,0,0,0,0,0,0,0,0,0,0,0,0,0,0,0,0,0,0,0,0,0,0,0,0,0,0,0,0,0,0,0,0,0,0,0,0,0,0,0,0,0,0,0,0,0,0,0,0,0,0,0,0,0,0,0,0,0,0,0,0,0,0,0,0,0,0,0,0,0,0,0,0,0,0,0,0,0,0,0,0,0,0,0,0,0,0,0,0,0,0,0,0,0,0,0,0,0,0,0,0,0,0,0,0,0,0,0,0,0,0,0,0,0,0,0,0,0,0,0,0,0,0,0,0,0],"sum_hessian":[6.767862E3,4.980211E3,1.787651E3,3.185275E3,1.7949359E3,1.1335127E3,6.5413824E2,1.3234697E3,1.8618052E3,1.4692375E3,3.256985E2,5.4491925E2,5.8859344E2,1.1518472E2,5.389535E2,1.1618878E3,1.615819E2,1.645166E3,2.1663924E2,7.370855E2,7.32152E2,1.4029678E2,1.8540169E2,3.5245566E2,1.9246361E2,1.2899136E2,4.596021E2,5.287817E1,6.2306553E1,6.2860676E1,4.7609283E2,9.561333E2,2.0575446E2,3.2776455E1,1.2880544E2,1.0584954E3,5.866706E2,1.670031E2,4.9636135E1,3.2991953E2,4.07166E2,7.852012E1,6.5363184E2,1.202035E2,2.0093294E1,3.6776054E1,1.4862563E2,1.6904381E2,1.8341183E2,1.1863142E1,1.8060046E2,5.0628647E1,7.836272E1,2.3474452E2,2.2485759E2,9.800557E0,4.3077614E1,4.5583183E1,1.672337E1,3.8128994E1,2.473168E1,2.2548766E2,2.5060516E2,7.630714E2,1.9306194E2,1.0234253E2,1.03411934E2,1.8865849E1,1.3910607E1,8.1299545E1,4.7505894E1,7.798002E2,2.7869525E2,4.5179428E2,1.3487628E2,3.1102345E1,1.3590076E2,1.6662871E0,4.796985E1,2.8426974E2,4.5649803E1,1.6482329E2,2.423427E2,7.888957E0,7.0631165E1,2.5811386E2,3.9551797E2,8.841757E1,3.1785923E1,1.5836103E0,1.8509686E1,3.1078026E1,5.698028E0,1.3540466E2,1.3220962E1,1.2061765E2,4.8426163E1,3.21292E1,1.5128264E2,3.196827E0,8.666315E0,5.323157E1,1.273689E2,4.331568E1,7.3129654E0,9.617433E0,6.8745285E1,1.215317E1,2.2259135E2,1.4855615E1,2.1000197E2,3.8226006E0,5.9779563E0,1.7238049E1,2.5839565E1,3.6978016E1,8.605166E0,1.5595755E1,1.1276151E0,1.936464E1,1.8764355E1,1.9211435E1,5.520246E0,1.3271785E2,9.2769806E1,1.6680607E1,2.3392456E2],"tree_param":{"num_deleted":"0","num_feature":"10","num_nodes":"127","size_leaf_vector":"1"}},{"base_weights":[-2.455644E-3,2.1185496E-1,-7.438417E-1,4.03886E-1,-4.7027442E-1,-5.2491933E-1,-1.0149373E0,5.1103204E-1,-2.5447655E-2,-2.9947203E-1,-7.193018E-1,-2.7812904E-1,-8.109163E-1,-9.338733E-1,-1.2198187E0,6.6030616E-1,3.393075E-1,2.3131976E-1,-2.2692761E-1,4.8044202E-1,-3.5282248E-1,-6.0482687E-1,-9.400545E-1,3.248939E-1,-3.277932E-1,-6.2349087E-1,-1.0131305E0,-1.0694907E0,-6.924805E-1,-4.4484E-1,-1.2466762E0,7.3832005E-1,3.814135E-1,3.9637217E-1,-1.274788E-1,6.15971E-1,1.2634175E-1,-9.466458E-2,-5.944953E-1,7.4043995E-1,-5.066689E-3,-9.490256E-2,-4.630111E-1,4.6616867E-2,-6.4364123E-1,2.3878928E-1,-9.6224076E-1,6.6445726E-1,-1.3244687E-1,-8.862689E-2,-4.011382E-1,-9.7622454E-1,-4.8104334E-1,-5.4246855E-1,-1.0690897E0,-6.703593E-1,-1.1063179E0,-5.283691E-1,-9.7439635E-1,-7.64058E-1,7.155577E-2,-1.2635593E-1,-6.478172E-1,8.8066965E-2,6.064839E-2,4.9340706E-2,1.1915827E-2,5.7398416E-2,2.6366806E-2,5.6082446E-2,-2.09231E-2,-6.868045E-2,6.798234E-2,2.7371505E-2,-1.8939605E-2,2.6027326E-2,-2.4150023E-2,-2.4564475E-2,-8.167709E-2,9.0027645E-2,-1.9346189E-2,3.282049E-2,-8.9480884E-2,6.557844E-3,-5.2589197E-2,-9.833786E-3,-5.1420987E-2,1.11203544E-1,-3.8165137E-2,-2.3276446E-2,-7.022046E-2,-4.4468105E-2,8.177822E-2,-9.762662E-2,3.3839636E-2,-5.7208575E-2,8.02355E-2,-6.68384E-2,3.192972E-2,2.674679E-3,-6.698699E-2,-6.256182E-2,-2.6922692E-2,1.3931396E-2,-1.03435636E-1,-5.2148517E-2,4.3047648E-2,-7.096516E-2,3.9443567E-2,-1.0827154E-1,-7.0666815E-3,-1.4852442E-2,-1.0307324E-1,-1.1788875E-1,-9.593684E-2,-7.683106E-2,-3.980956E-2,-1.043599E-1,-1.1988834E-2,-2.0224681E-2,-1.1576714E-1,1.30698895E-2,-8.185845E-2],"categories":[],"categories_nodes":[],"categories_segments":[],"categories_sizes":[],"default_left":[0,0,0,0,0,0,0,0,0,0,0,0,0,0,0,0,0,0,0,0,0,0,0,0,0,0,0,0,0,0,0,0,0,0,0,0,0,0,0,0,0,0,0,0,0,0,0,0,0,0,0,0,0,0,0,0,0,0,0,0,0,0,0,0,0,0,0,0,0,0,0,0,0,0,0,0,0,0,0,0,0,0,0,0,0,0,0,0,0,0,0,0,0,0,0,0,0,0,0,0,0,0,0,0,0,0,0,0,0,0,0,0,0,0,0,0,0,0,0,0,0,0,0],"id":9,"left_children":[1,3,5,7,9,11,13,15,17,19,21,23,25,27,29,31,33,35,37,39,41,43,45,47,49,51,53,55,57,59,61,63,65,67,69,71,73,75,77,79,81,83,85,87,89,91,93,95,97,99,101,103,105,107,109,111,113,115,117,119,-1,-1,121,-1,-1,-1,-1,-1,-1,-1,-1,-1,-1,-1,-1,-1,-1,-1,-1,-1,-1,-1,-1,-1,-1,-1,-1,-1,-1,-1,-1,-1,-1,-1,-1,-1,-1,-1,-1,-1,-1,-1,-1,-1,-1,-1,-1,-1,-1,-1,-1,-1,-1,-1,-1,-1,-1,-1,-1,-1,-1,-1,-1],"loss_changes":[1.0588126E3,6.773546E2,8.815564E1,1.8560565E2,4.810762E1,5.827246E1,9.931335E0,8.254248E1,4.17872E1,2.828041E1,1.1093597E1,1.3476124E1,1.3898636E1,1.5033966E1,3.3105164E0,3.7276917E1,4.010019E1,1.4264812E1,2.1943897E1,5.5174427E0,1.794355E1,7.7851257E0,4.3042603E0,5.441224E0,7.208229E0,9.658409E0,4.2350464E0,3.7663574E0,7.6357117E0,3.426649E0,9.904785E-1,2.4760742E1,1.1084408E1,3.1432114E1,9.376135E0,6.7803535E0,1.309438E1,1.7468815E1,9.07E0,4.421361E0,5.1052556E0,1.3225375E1,8.224457E0,8.719171E0,6.8031845E0,1.8195242E0,3.1233673E0,3.860651E0,3.9713922E0,6.603257E0,9.18129E0,3.8413048E0,5.5901566E0,3.640707E0,2.1322937E0,5.196085E0,1.8468323E0,3.242981E0,3.6378899E0,1.2211647E0,0E0,0E0,1.032023E0,0E0,0E0,0E0,0E0,0E0,0E0,0E0,0E0,0E0,0E0,0E0,0E0,0E0,0E0,0E0,0E0,0E0,0E0,0E0,0E0,0E0,0E0,0E0,0E0,0E0,0E0,0E0,0E0,0E0,0E0,0E0,0E0,0E0,0E0,0E0,0E0,0E0,0E0,0E0,0E0,0E0,0E0,0E0,0E0,0E0,0E0,0E0,0E0,0E0,0E0,0E0,0E0,0E0,0E0,0E0,0E0,0E0,0E0,0E0,0E0],"parents":[2147483647,0,0,1,1,2,2,3,3,4,4,5,5,6,6,7,7,8,8,9,9,10,10,11,11,12,12,13,13,14,14,15,15,16,16,17,17,18,18,19,19,20,20,21,21,22,22,23,23,24,24,25,25,26,26,27,27,28,28,29,29,30,30,31,31,32,32,33,33,34,34,35,35,36,36,37,37,38,38,39,39,40,40,41,41,42,42,43,43,44,44,45,45,46,46,47,47,48,48,49,49,50,50,51,51,52,52,53,53,54,54,55,55,56,56,57,57,58,58,59,59,62,62],"right_children":[2,4,6,8,10,12,14,16,18,20,22,24,26,28,30,32,34,36,38,40,42,44,46,48,50,52,54,56,58,60,62,64,66,68,70,72,74,76,78,80,82,84,86,88,90,92,94,96,98,100,102,104,106,108,110,112,114,116,118,120,-1,-1,122,-1,-1,-1,-1,-1,-1,-1,-1,-1,-1,-1,-1,-1,-1,-1,-1,-1,-1,-1,-1,-1,-1,-1,-1,-1,-1,-1,-1,-1,-1,-1,-1,-1,-1,-1,-1,-1,-1,-1,-1,-1,-1,-1,-1,-1,-1,-1,-1,-1,-1,-1,-1,-1,-1,-1,-1,-1,-1,-1,-1],"split_conditions":[4.400437E-2,4.2295745E-3,6.354798E-2,3.9189742E0,6.4800032E-3,2.9602754E-3,9.2493385E-2,1.6271907E-3,2.3790638E-4,1.5840118E-7,8.922604E-3,1.5840118E-7,5.205599E-3,9.847991E0,6.397483E-2,2.6741866E-2,7.5443406E0,3.3414364E-7,2.8344791E-2,1.2307843E0,1.0383E-2,1.5840118E-7,7.2232616E-4,5.21609E-2,4.745732E-2,1.1280574E-1,4.7016783E-5,5.384414E-4,4.4175917E-3,5.664179E-2,3.4863663E1,2.337541E-4,5.215742E-4,1.8980539E-4,4.238945E-6,1.9204917E-3,1.8454082E-1,6.397483E-2,1.4410994E-3,2.2465341E-1,3.0097073E-2,7.5655844E-4,9.4965225E-1,1.8335721E0,4.2692833E-3,2.3016608E0,9.477445E-3,1.5254052E0,1.9613692E-1,1.0701122E-3,1.5607741E-1,1.2500186E-5,5.0725E-3,4.6331985E-5,1.1791653E1,1.7163016E0,2.688887E-1,2.654015E0,2.43704E-3,3.2087125E-2,7.155577E-2,-1.2635593E-1,1.6211414E-1,8.8066965E-2,6.064839E-2,4.9340706E-2,1.1915827E-2,5.7398416E-2,2.6366806E-2,5.6082446E-2,-2.09231E-2,-6.868045E-2,6.798234E-2,2.7371505E-2,-1.8939605E-2,2.6027326E-2,-2.4150023E-2,-2.4564475E-2,-8.167709E-2,9.0027645E-2,-1.9346189E-2,3.282049E-2,-8.9480884E-2,6.557844E-3,-5.2589197E-2,-9.833786E-3,-5.1420987E-2,1.11203544E-1,-3.8165137E-2,-2.3276446E-2,-7.022046E-2,-4.4468105E-2,8.177822E-2,-9.762662E-2,3.3839636E-2,-5.7208575E-2,8.02355E-2,-6.68384E-2,3.192972E-2,2.674679E-3,-6.698699E-2,-6.256182E-2,-2.6922692E-2,1.3931396E-2,-1.03435636E-1,-5.2148517E-2,4.3047648E-2,-7.096516E-2,3.9443567E-2,-1.0827154E-1,-7.0666815E-3,-1.4852442E-2,-1.0307324E-1,-1.1788875E-1,-9.593684E-2,-7.683106E-2,-3.980956E-2,-1.043599E-1,-1.1988834E-2,-2.0224681E-2,-1.1576714E-1,1.30698895E-2,-8.185845E-2],"split_indices":[1,3,1,2,3,3,1,3,7,7,3,7,3,8,0,1,8,7,1,9,1,7,1,1,1,0,7,3,3,0,8,7,7,7,7,1,0,0,3,0,1,7,8,8,1,8,7,8,0,7,0,7,3,7,9,2,0,9,7,0,0,0,0,0,0,0,0,0,0,0,0,0,0,0,0,0,0,0,0,0,0,0,0,0,0,0,0,0,0,0,0,0,0,0,0,0,0,0,0,0,0,0,0,0,0,0,0,0,0,0,0,0,0,0,0,0,0,0,0,0,0,0,0],"split_type":[0,0,0,0,0,0,0,0,0,0,0,0,0,0,0,0,0,0,0,0,0,0,0,0,0,0,0,0,0,0,0,0,0,0,0,0,0,0,0,0,0,0,0,0,0,0,0,0,0,0,0,0,0,0,0,0,0,0,0,0,0,0,0,0,0,0,0,0,0,0,0,0,0,0,0,0,0,0,0,0,0,0,0,0,0,0,0,0,0,0,0,0,0,0,0,0,0,0,0,0,0,0,0,0,0,0,0,0,0,0,0,0,0,0,0,0,0,0,0,0,0,0,0],"sum_hessian":[6.6619473E3,5.1685903E3,1.493357E3,4.0334993E3,1.1350908E3,8.2780334E2,6.655537E2,3.2277742E3,8.057252E2,6.7460004E2,4.6049072E2,4.454186E2,3.8238477E2,4.8085522E2,1.8469849E2,1.7252393E3,1.5025348E3,3.541922E2,4.5153305E2,4.2679283E1,6.319207E2,3.0570312E2,1.5478761E2,3.3471027E1,4.1194757E2,2.005683E2,1.8181647E2,3.0568643E2,1.7516878E2,6.7747493E0,1.7792374E2,1.3468431E3,3.7839618E2,1.3389935E3,1.6354135E2,7.4896255E1,2.7929596E2,3.329751E2,1.1855793E2,2.7452785E1,1.52265E1,1.8971455E2,4.4220618E2,1.7178905E1,2.885242E2,2.679004E0,1.5210861E2,1.8949017E1,1.4522013E1,9.72005E1,3.1474707E2,5.60132E1,1.4455508E2,2.0456276E1,1.6136018E2,2.7444696E1,2.7824173E2,1.125338E2,6.2634983E1,5.5810056E0,1.193744E0,1.7196571E2,5.958024E0,6.4486847E2,7.019746E2,2.6454388E2,1.1385228E2,5.711875E2,7.6780597E2,1.6740084E1,1.4680125E2,3.0435107E0,7.1852745E1,1.9050787E2,8.878808E1,9.721355E1,2.3576157E2,4.6960644E1,7.159729E1,2.347164E1,3.9811454E0,1.1536416E1,3.690083E0,1.3885796E2,5.0856594E1,5.4800404E1,3.874058E2,4.4677453E0,1.271116E1,3.661445E1,2.5190976E2,1.3350378E0,1.3439661E0,1.5073259E2,1.3760291E0,1.5852543E0,1.7363762E1,6.4227138E0,8.0992985E0,8.189814E1,1.5302365E1,1.151122E2,1.9963487E2,2.705161E0,5.330804E1,1.3882373E2,5.7313614E0,1.7564573E1,2.8917022E0,1.5910442E2,2.2557755E0,1.1787727E1,1.5656968E1,1.8155833E2,9.6683395E1,3.7875664E1,7.4658134E1,5.773778E1,4.897201E0,2.9229085E0,2.658097E0,1.1140022E0,4.844022E0],"tree_param":{"num_deleted":"0","num_feature":"10","num_nodes":"123","size_leaf_vector":"1"}},{"base_weights":[-4.83222E-3,1.9185492E-1,-6.8578833E-1,3.6105132E-1,-4.609721E-1,-4.9391997E-1,-9.6909815E-1,4.3901744E-1,-1.4937608E-1,-3.793553E-1,-8.209685E-1,-3.55976E-1,-9.9678165E-1,-8.10661E-1,-1.0746665E0,6.10221E-1,2.611031E-1,-3.479914E-2,-4.3081757E-1,-2.1415246E-1,-5.843864E-1,-5.287592E-1,-9.317437E-1,-6.114955E-1,-2.4311398E-1,-5.6713325E-1,-1.0476723E0,-5.9331346E-1,-1.0460852E0,-1.020263E0,-1.1810212E0,6.8619657E-1,3.3562434E-1,7.667608E-1,2.1016216E-1,2.548744E-1,-1.7492095E-1,5.35171E-1,-4.5543617E-1,-1.5089999E-1,-7.7069443E-1,-5.248961E-1,-1.0168203E0,2.2794098E-1,-8.183772E-1,-2.1978999E-3,-9.792213E-1,-2.7424917E-1,-7.143278E-1,-1.2103027E-2,-3.3580306E-1,-6.778103E-1,4.4802275E-2,-1.0913094E0,-6.0675645E-1,-7.6252776E-1,-2.2314523E-1,-1.071294E0,-2.8910166E-1,-1.2303164E0,-9.4754225E-1,3.371033E-1,-1.2173743E0,8.105037E-2,4.6747126E-2,4.0424768E-2,1.0978584E-2,8.254669E-2,1.5047527E-2,2.9373575E-2,-1.4631991E-2,4.7029275E-2,-2.1890081E-2,-6.7044743E-3,-6.949255E-2,1.2558332E-1,-3.698231E-2,-4.964878E-2,7.3574516E-3,1.2740714E-2,-2.7257923E-2,-8.3867736E-2,-1.5895028E-3,1.0794689E-1,-5.409434E-2,-7.191542E-3,-1.04473054E-1,-1.7382286E-2,6.1210226E-2,3.5634466E-2,-8.8450275E-2,-8.392155E-2,8.991292E-2,-2.3299655E-2,-9.97855E-2,6.163309E-2,-4.4158056E-2,-6.0361695E-2,-1.04598716E-1,6.9666603E-3,-4.926258E-2,-6.844818E-2,-2.2426775E-2,-1.0366364E-2,-9.3562424E-2,-1.1003275E-1,-2.845999E-2,-9.117855E-2,3.652474E-2,3.4592734E-3,-8.0505215E-2,-7.828625E-2,5.5700424E-3,-4.8115823E-2,-1.1090026E-1,9.965683E-2,-9.243368E-2,-1.2551743E-1,-4.3751936E-2,-9.713554E-2,-5.2171018E-2,-4.5612752E-2,1.04698E-1,-3.280596E-2,-1.2243473E-1],"categories":[],"categories_nodes":[],"categories_segments":[],"categories_sizes":[],"default_left":[0,0,0,0,0,0,0,0,0,0,0,0,0,0,0,0,0,0,0,0,0,0,0,0,0,0,0,0,0,0,0,0,0,0,0,0,0,0,0,0,0,0,0,0,0,0,0,0,0,0,0,0,0,0,0,0,0,0,0,0,0,0,0,0,0,0,0,0,0,0,0,0,0,0,0,0,0,0,0,0,0,0,0,0,0,0,0,0,0,0,0,0,0,0,0,0,0,0,0,0,0,0,0,0,0,0,0,0,0,0,0,0,0,0,0,0,0,0,0,0,0,0,0,0,0],"id":10,"left_children":[1,3,5,7,9,11,13,15,17,19,21,23,25,27,29,31,33,35,37,39,41,43,45,47,49,51,53,55,57,59,61,63,65,67,69,71,73,75,77,79,81,83,85,87,89,91,93,95,97,99,101,103,-1,105,107,109,111,113,115,117,119,121,123,-1,-1,-1,-1,-1,-1,-1,-1,-1,-1,-1,-1,-1,-1,-1,-1,-1,-1,-1,-1,-1,-1,-1,-1,-1,-1,-1,-1,-1,-1,-1,-1,-1,-1,-1,-1,-1,-1,-1,-1,-1,-1,-1,-1,-1,-1,-1,-1,-1,-1,-1,-1,-1,-1,-1,-1,-1,-1,-1,-1,-1,-1],"loss_changes":[8.767184E2,5.6115894E2,7.926337E1,1.6060504E2,3.041661E1,6.045732E1,9.01886E0,1.064422E2,1.7246212E1,2.8814728E1,5.736023E0,1.973581E1,3.5200653E0,1.1686188E1,8.305359E-1,3.6963013E1,4.4092194E1,1.5529657E1,3.9246597E0,1.659555E1,9.259064E0,1.2285387E1,6.09774E0,7.1072464E0,1.0272182E1,2.7875285E0,2.5520477E0,7.80793E0,1.8684692E0,2.5015106E0,6.630356E0,3.756244E1,5.9736824E0,5.5508194E0,4.6583015E1,1.2838464E1,1.4410439E1,3.2730548E0,3.3260937E0,1.4512612E1,2.4602318E0,9.252403E0,1.1107903E0,2.585643E0,3.4335175E0,6.5778317E0,1.5959854E0,7.847072E0,5.2713394E0,5.4747224E0,1.3164932E1,2.9126072E0,0E0,7.836151E-1,5.4613185E0,2.9768028E0,6.5006714E0,1.9164124E0,5.0441422E0,6.015549E-1,1.3457794E0,2.4026897E0,2.822113E-1,0E0,0E0,0E0,0E0,0E0,0E0,0E0,0E0,0E0,0E0,0E0,0E0,0E0,0E0,0E0,0E0,0E0,0E0,0E0,0E0,0E0,0E0,0E0,0E0,0E0,0E0,0E0,0E0,0E0,0E0,0E0,0E0,0E0,0E0,0E0,0E0,0E0,0E0,0E0,0E0,0E0,0E0,0E0,0E0,0E0,0E0,0E0,0E0,0E0,0E0,0E0,0E0,0E0,0E0,0E0,0E0,0E0,0E0,0E0,0E0,0E0,0E0],"parents":[2147483647,0,0,1,1,2,2,3,3,4,4,5,5,6,6,7,7,8,8,9,9,10,10,11,11,12,12,13,13,14,14,15,15,16,16,17,17,18,18,19,19,20,20,21,21,22,22,23,23,24,24,25,25,26,26,27,27,28,28,29,29,30,30,31,31,32,32,33,33,34,34,35,35,36,36,37,37,38,38,39,39,40,40,41,41,42,42,43,43,44,44,45,45,46,46,47,47,48,48,49,49,50,50,51,51,53,53,54,54,55,55,56,56,57,57,58,58,59,59,60,60,61,61,62,62],"right_children":[2,4,6,8,10,12,14,16,18,20,22,24,26,28,30,32,34,36,38,40,42,44,46,48,50,52,54,56,58,60,62,64,66,68,70,72,74,76,78,80,82,84,86,88,90,92,94,96,98,100,102,104,-1,106,108,110,112,114,116,118,120,122,124,-1,-1,-1,-1,-1,-1,-1,-1,-1,-1,-1,-1,-1,-1,-1,-1,-1,-1,-1,-1,-1,-1,-1,-1,-1,-1,-1,-1,-1,-1,-1,-1,-1,-1,-1,-1,-1,-1,-1,-1,-1,-1,-1,-1,-1,-1,-1,-1,-1,-1,-1,-1,-1,-1,-1,-1,-1,-1,-1,-1,-1,-1],"split_conditions":[4.400437E-2,4.3730326E-3,6.55259E-2,1.8097995E-2,8.336798E-3,5.274923E-3,2.5669853E-3,1.5717502E-3,2.802504E-2,4.1676615E-4,1.2316949E-2,1.2680471E-1,4.673275E-5,8.149648E-2,9.2493385E-2,1.07087055E-2,3.3414364E-7,1.19704185E-2,1.01252175E-4,2.8610942E0,2.5897255E-2,2.530646E0,1.5840118E-7,1.3946305E-4,1.0874176E-3,4.6331985E-5,2.066892E-3,9.847991E0,5.9258533E-3,1.5746644E-1,3.458752E-2,1.9866887E-2,2.016913E0,1.480822E-2,2.1201377E-1,1.9737282E0,1.1004631E-3,3.7239544E-2,2.704645E-3,1.0383E-2,8.342528E0,2.8932927E-4,1.2069718E-1,6.4512813E-1,1.0451372E-3,1.2574E-1,5.2283186E-2,4.6357103E-2,1.5531275E-2,6.0898177E-2,3.9821641E0,6.1533856E-3,4.4802275E-2,1.1791653E1,2.4198856E0,7.6127297E-4,7.00695E-2,9.703611E-2,9.477445E-3,9.022374E-2,2.8874862E-3,2.4355894E-4,2.5954635E-3,8.105037E-2,4.6747126E-2,4.0424768E-2,1.0978584E-2,8.254669E-2,1.5047527E-2,2.9373575E-2,-1.4631991E-2,4.7029275E-2,-2.1890081E-2,-6.7044743E-3,-6.949255E-2,1.2558332E-1,-3.698231E-2,-4.964878E-2,7.3574516E-3,1.2740714E-2,-2.7257923E-2,-8.3867736E-2,-1.5895028E-3,1.0794689E-1,-5.409434E-2,-7.191542E-3,-1.04473054E-1,-1.7382286E-2,6.1210226E-2,3.5634466E-2,-8.8450275E-2,-8.392155E-2,8.991292E-2,-2.3299655E-2,-9.97855E-2,6.163309E-2,-4.4158056E-2,-6.0361695E-2,-1.04598716E-1,6.9666603E-3,-4.926258E-2,-6.844818E-2,-2.2426775E-2,-1.0366364E-2,-9.3562424E-2,-1.1003275E-1,-2.845999E-2,-9.117855E-2,3.652474E-2,3.4592734E-3,-8.0505215E-2,-7.828625E-2,5.5700424E-3,-4.8115823E-2,-1.1090026E-1,9.965683E-2,-9.243368E-2,-1.2551743E-1,-4.3751936E-2,-9.713554E-2,-5.2171018E-2,-4.5612752E-2,1.04698E-1,-3.280596E-2,-1.2243473E-1],"split_indices":[1,3,1,5,3,3,3,3,5,7,1,0,7,1,1,5,7,1,3,9,5,8,7,7,3,7,7,8,7,0,0,1,9,5,0,9,7,5,7,1,9,1,9,9,5,0,9,1,5,1,8,5,0,9,9,5,1,0,7,1,7,7,3,0,0,0,0,0,0,0,0,0,0,0,0,0,0,0,0,0,0,0,0,0,0,0,0,0,0,0,0,0,0,0,0,0,0,0,0,0,0,0,0,0,0,0,0,0,0,0,0,0,0,0,0,0,0,0,0,0,0,0,0,0,0],"split_type":[0,0,0,0,0,0,0,0,0,0,0,0,0,0,0,0,0,0,0,0,0,0,0,0,0,0,0,0,0,0,0,0,0,0,0,0,0,0,0,0,0,0,0,0,0,0,0,0,0,0,0,0,0,0,0,0,0,0,0,0,0,0,0,0,0,0,0,0,0,0,0,0,0,0,0,0,0,0,0,0,0,0,0,0,0,0,0,0,0,0,0,0,0,0,0,0,0,0,0,0,0,0,0,0,0,0,0,0,0,0,0,0,0,0,0,0,0,0,0,0,0,0,0,0,0],"sum_hessian":[6.543852E3,5.077878E3,1.4659744E3,4.0330574E3,1.0448206E3,8.756761E2,5.902983E2,3.4987715E3,5.3428595E2,8.533961E2,1.9142438E2,6.8851263E2,1.8716345E2,2.3951413E2,3.5078415E2,1.7817742E3,1.7169973E3,3.805037E2,1.5378226E2,4.7373264E2,3.7966348E2,5.4207054E1,1.3721732E2,2.0958784E2,4.789248E2,2.1107307E1,1.6605614E2,1.2636866E2,1.1314547E2,2.3908049E2,1.1170365E2,1.3944564E3,3.8731778E2,1.5585674E2,1.5611406E3,1.2378476E2,2.5671893E2,3.30641E0,1.5047585E2,4.2652777E2,4.7204872E1,3.3569543E2,4.3968067E1,1.5063311E1,3.914374E1,6.7188005E0,1.3049852E2,4.9830826E1,1.5975702E2,1.3746025E2,3.4146454E2,1.9331957E1,1.7753513E0,1.4975943E2,1.629671E1,8.599704E1,4.0371624E1,1.0909715E2,4.048321E0,5.739032E1,1.8169017E2,2.4188359E0,1.0928481E2,8.874119E2,5.0704443E2,2.9644882E2,9.086897E1,1.419915E2,1.38652315E1,1.2647977E3,2.9634286E2,8.509893E1,3.8685833E1,2.1354703E2,4.317192E1,1.6248469E0,1.6815633E0,1.3969675E2,1.0779095E1,1.2973906E2,2.9678873E2,4.3202595E1,4.002278E0,2.6681998E0,3.3302722E2,1.3640671E0,4.2604E1,7.630599E0,7.432712E0,1.8521073E0,3.7291637E1,3.5194106E0,3.1993902E0,3.5082347E0,1.2699028E2,7.457394E0,4.2373432E1,1.2188927E2,3.7867744E1,1.182012E2,1.9259052E1,8.1510765E1,2.599538E2,6.425214E0,1.2906742E1,1.4774387E2,2.0155644E0,1.245127E1,3.8454382E0,4.3648243E0,8.163221E1,1.2823646E1,2.7547977E1,7.378849E0,1.017183E2,1.1506568E0,2.897664E0,5.5080082E1,2.310236E0,1.7085468E2,1.0835498E1,1.3111666E0,1.1076692E0,1.2240084E0,1.0806081E2],"tree_param":{"num_deleted":"0","num_feature":"10","num_nodes":"125","size_leaf_vector":"1"}},{"base_weights":[-1.2246326E-2,1.8605667E-1,-5.9121317E-1,4.025427E-1,-1.8713148E-1,-3.989152E-1,-9.028032E-1,5.8926636E-1,1.604183E-1,-4.5638056E-3,-4.9173734E-1,-1.4712314E-1,-7.0543075E-1,-8.2128453E-1,-1.117803E0,6.8221486E-1,2.1283789E-1,5.7873493E-1,5.9541002E-2,3.875229E-1,-1.1375631E-1,-1.4242287E-1,-5.703814E-1,-6.160405E-2,-4.7045317E-1,-5.4849786E-1,-9.4009846E-1,-1.0661665E0,-7.3588777E-1,-3.6623812E-1,-1.1679502E0,7.293814E-1,2.2501892E-1,2.923206E-1,-4.8884216E-1,7.093724E-1,2.8764334E-1,2.0299213E-1,-2.1086134E-1,4.8859128E-1,-4.094368E-1,-4.5188077E-2,-7.2433937E-1,-5.786083E-2,-1.0361896E0,-4.248971E-1,-7.897881E-1,3.1458503E-1,-1.4493483E-1,-3.5826012E-1,-8.5675883E-1,-4.8417723E-1,-9.0782326E-1,-4.759728E-1,-1.0105915E0,-5.310127E-1,-1.1974866E0,-2.8120276E-1,-7.904603E-1,-5.8264536E-1,8.717095E-2,-7.733525E-1,-1.1920289E0,8.199042E-2,5.3321715E-2,-2.8613186E-2,3.6368784E-2,4.8945297E-2,9.906403E-3,1.2765193E-2,-7.416316E-2,7.485075E-2,-7.4878775E-2,5.738318E-2,5.6993198E-3,3.3736885E-2,-9.925513E-3,-1.3654015E-2,-6.717988E-2,7.40936E-2,3.052294E-2,-1.1896366E-1,-7.795953E-3,5.792166E-3,-2.2594852E-2,-7.8612216E-2,5.2649844E-3,1.812231E-2,-4.1648753E-2,-1.2580982E-1,-2.465475E-2,-2.5065351E-2,-6.36331E-2,-4.995591E-2,-8.737019E-2,-3.0268881E-2,4.1897994E-2,-2.3567823E-3,-3.3807263E-2,-5.5827964E-3,-5.485765E-2,-2.9741535E-2,-1.0483179E-1,-7.862067E-2,-3.9466802E-2,5.175335E-2,-1.0100168E-1,4.3595523E-2,-6.432387E-2,-7.495441E-2,-1.0720154E-1,-8.086412E-2,5.398308E-2,-6.5550186E-2,-1.2387407E-1,3.020833E-4,-6.899286E-2,-1.7032988E-2,-8.262834E-2,-8.482153E-2,5.4282498E-2,1.3487118E-2,-1.0939977E-1,-1.2116982E-1,-7.469602E-2],"categories":[],"categories_nodes":[],"categories_segments":[],"categories_sizes":[],"default_left":[0,0,0,0,0,0,0,0,0,0,0,0,0,0,0,0,0,0,0,0,0,0,0,0,0,0,0,0,0,0,0,0,0,0,0,0,0,0,0,0,0,0,0,0,0,0,0,0,0,0,0,0,0,0,0,0,0,0,0,0,0,0,0,0,0,0,0,0,0,0,0,0,0,0,0,0,0,0,0,0,0,0,0,0,0,0,0,0,0,0,0,0,0,0,0,0,0,0,0,0,0,0,0,0,0,0,0,0,0,0,0,0,0,0,0,0,0,0,0,0,0,0,0,0,0],"id":11,"left_children":[1,3,5,7,9,11,13,15,17,19,21,23,25,27,29,31,33,35,37,39,41,43,45,47,49,51,53,55,57,59,61,63,65,67,69,71,73,75,77,79,81,83,85,87,89,91,93,95,97,99,101,103,105,107,109,111,113,115,117,119,-1,121,123,-1,-1,-1,-1,-1,-1,-1,-1,-1,-1,-1,-1,-1,-1,-1,-1,-1,-1,-1,-1,-1,-1,-1,-1,-1,-1,-1,-1,-1,-1,-1,-1,-1,-1,-1,-1,-1,-1,-1,-1,-1,-1,-1,-1,-1,-1,-1,-1,-1,-1,-1,-1,-1,-1,-1,-1,-1,-1,-1,-1,-1,-1],"loss_changes":[7.3674176E2,3.8624316E2,9.773474E1,1.3668387E2,9.7624146E1,7.8167114E1,1.0018311E1,5.9605713E1,5.5610657E1,4.708045E1,1.799141E1,1.540146E1,1.6318527E1,8.755829E0,5.9332886E0,2.9359741E1,1.908441E1,9.534515E0,4.1297535E1,1.9494617E1,3.5976967E1,9.177764E0,1.6794174E1,1.3916178E1,4.7455463E0,5.9469376E0,5.4665985E0,7.497238E0,8.251053E0,3.7264185E0,5.7710266E-1,2.1592957E1,9.281757E0,1.1597666E1,5.538437E0,1.0608643E1,5.3147883E0,2.8277596E1,1.2554148E1,9.631283E0,7.0201406E0,1.4445259E1,4.2067986E0,9.740379E0,1.5306835E0,1.1808086E1,4.746063E0,5.317751E0,8.498962E0,5.26801E0,2.422409E0,6.08379E0,6.4673157E0,4.224968E0,1.7127075E0,7.7500114E0,1.2479553E0,4.4334707E0,6.620117E0,3.6961007E0,0E0,3.6189685E0,3.804016E-1,0E0,0E0,0E0,0E0,0E0,0E0,0E0,0E0,0E0,0E0,0E0,0E0,0E0,0E0,0E0,0E0,0E0,0E0,0E0,0E0,0E0,0E0,0E0,0E0,0E0,0E0,0E0,0E0,0E0,0E0,0E0,0E0,0E0,0E0,0E0,0E0,0E0,0E0,0E0,0E0,0E0,0E0,0E0,0E0,0E0,0E0,0E0,0E0,0E0,0E0,0E0,0E0,0E0,0E0,0E0,0E0,0E0,0E0,0E0,0E0,0E0,0E0],"parents":[2147483647,0,0,1,1,2,2,3,3,4,4,5,5,6,6,7,7,8,8,9,9,10,10,11,11,12,12,13,13,14,14,15,15,16,16,17,17,18,18,19,19,20,20,21,21,22,22,23,23,24,24,25,25,26,26,27,27,28,28,29,29,30,30,31,31,32,32,33,33,34,34,35,35,36,36,37,37,38,38,39,39,40,40,41,41,42,42,43,43,44,44,45,45,46,46,47,47,48,48,49,49,50,50,51,51,52,52,53,53,54,54,55,55,56,56,57,57,58,58,59,59,61,61,62,62],"right_children":[2,4,6,8,10,12,14,16,18,20,22,24,26,28,30,32,34,36,38,40,42,44,46,48,50,52,54,56,58,60,62,64,66,68,70,72,74,76,78,80,82,84,86,88,90,92,94,96,98,100,102,104,106,108,110,112,114,116,118,120,-1,122,124,-1,-1,-1,-1,-1,-1,-1,-1,-1,-1,-1,-1,-1,-1,-1,-1,-1,-1,-1,-1,-1,-1,-1,-1,-1,-1,-1,-1,-1,-1,-1,-1,-1,-1,-1,-1,-1,-1,-1,-1,-1,-1,-1,-1,-1,-1,-1,-1,-1,-1,-1,-1,-1,-1,-1,-1,-1,-1,-1,-1,-1,-1],"split_conditions":[4.0429126E-2,2.8709413E-3,6.354798E-2,9.909876E-5,5.338565E-3,2.9317078E-3,9.2493385E-2,1.3960518E-2,4.8124508E-5,1.24196085E-5,1.9986271E-7,3.2987748E-4,5.521192E-3,1.5461063E-1,9.703611E-2,2.555268E-1,3.1387012E-2,3.7691402E-4,1.1104157E-2,3.294822E-2,2.278513E-2,3.310227E-2,7.467241E-3,4.9935483E-5,1.8517068E-2,2.278513E-2,4.7016783E-5,4.632203E-5,5.685903E-4,8.029214E-4,3.8823106E-5,4.7532926E-4,3.208532E0,3.256157E-4,8.08545E-3,1.3311456E1,1.042747E-3,3.7691402E-4,2.7001617E-2,8.013293E-2,3.457191E-2,4.713646E-4,5.0725E-3,4.9903865E0,4.4219E-2,1.3301432E-1,5.584252E-3,1.6214348E0,1.6912603E-3,2.2399334E-4,4.580287E-2,8.1056714E-2,5.7853595E-7,4.43867E-8,1.0582962E-6,1.24196085E-5,1.4055749E-2,7.666377E-2,1.5840118E-7,1.378105E-1,8.717095E-2,2.555268E-1,3.8852221E-3,8.199042E-2,5.3321715E-2,-2.8613186E-2,3.6368784E-2,4.8945297E-2,9.906403E-3,1.2765193E-2,-7.416316E-2,7.485075E-2,-7.4878775E-2,5.738318E-2,5.6993198E-3,3.3736885E-2,-9.925513E-3,-1.3654015E-2,-6.717988E-2,7.40936E-2,3.052294E-2,-1.1896366E-1,-7.795953E-3,5.792166E-3,-2.2594852E-2,-7.8612216E-2,5.2649844E-3,1.812231E-2,-4.1648753E-2,-1.2580982E-1,-2.465475E-2,-2.5065351E-2,-6.36331E-2,-4.995591E-2,-8.737019E-2,-3.0268881E-2,4.1897994E-2,-2.3567823E-3,-3.3807263E-2,-5.5827964E-3,-5.485765E-2,-2.9741535E-2,-1.0483179E-1,-7.862067E-2,-3.9466802E-2,5.175335E-2,-1.0100168E-1,4.3595523E-2,-6.432387E-2,-7.495441E-2,-1.0720154E-1,-8.086412E-2,5.398308E-2,-6.5550186E-2,-1.2387407E-1,3.020833E-4,-6.899286E-2,-1.7032988E-2,-8.262834E-2,-8.482153E-2,5.4282498E-2,1.3487118E-2,-1.0939977E-1,-1.2116982E-1,-7.469602E-2],"split_indices":[1,3,1,4,3,3,1,5,7,4,4,4,3,0,0,0,5,4,5,1,5,5,3,7,5,5,7,4,3,4,7,7,8,7,1,8,3,4,5,0,1,7,3,8,5,0,5,8,3,7,1,0,7,4,4,4,0,1,7,1,0,0,7,0,0,0,0,0,0,0,0,0,0,0,0,0,0,0,0,0,0,0,0,0,0,0,0,0,0,0,0,0,0,0,0,0,0,0,0,0,0,0,0,0,0,0,0,0,0,0,0,0,0,0,0,0,0,0,0,0,0,0,0,0,0],"split_type":[0,0,0,0,0,0,0,0,0,0,0,0,0,0,0,0,0,0,0,0,0,0,0,0,0,0,0,0,0,0,0,0,0,0,0,0,0,0,0,0,0,0,0,0,0,0,0,0,0,0,0,0,0,0,0,0,0,0,0,0,0,0,0,0,0,0,0,0,0,0,0,0,0,0,0,0,0,0,0,0,0,0,0,0,0,0,0,0,0,0,0,0,0,0,0,0,0,0,0,0,0,0,0,0,0,0,0,0,0,0,0,0,0,0,0,0,0,0,0,0,0,0,0,0,0],"sum_hessian":[6.4150454E3,4.7788955E3,1.6361497E3,3.0243784E3,1.7545172E3,1.01315845E3,6.229912E2,1.7067318E3,1.3176466E3,1.0976487E3,6.568685E2,5.57045E2,4.561135E2,4.5521384E2,1.6777737E2,1.3681044E3,3.3862744E2,2.550931E2,1.0625535E3,2.3854305E2,8.5910565E2,1.21226425E2,5.356421E2,4.414692E2,1.1557576E2,2.7532715E2,1.8078633E2,1.14730446E2,3.4048337E2,1.1013854E1,1.5676352E2,1.2396237E3,1.284808E2,3.046964E2,3.3931046E1,1.7508202E2,8.001108E1,6.9441095E2,3.6814258E2,2.1203966E2,2.650339E1,7.733345E2,8.577114E1,1.117209E2,9.505524E0,3.23844E2,2.1179808E2,7.955418E1,3.6191504E2,9.105768E1,2.451808E1,2.3551631E2,3.9810852E1,2.4860027E1,1.559263E2,2.3599947E1,9.11305E1,3.714586E1,3.0333752E2,9.825578E0,1.1882763E0,1.0920362E1,1.4584315E2,8.460307E2,3.9359293E2,2.7190361E1,1.0129044E2,1.5007698E2,1.5461943E2,1.0011173E1,2.3919874E1,1.7097981E2,4.102197E0,3.5042633E1,4.4968445E1,4.806165E2,2.1379445E2,3.1814185E2,5.000072E1,8.7954636E1,1.2408502E2,7.1307683E0,1.937262E1,4.9287012E2,2.804644E2,7.944247E1,6.328673E0,6.732941E1,4.4391495E1,6.957146E0,2.5483775E0,1.78734E2,1.4511E2,4.906213E1,1.6273595E2,1.1233349E1,6.832082E1,2.2294151E2,1.3897353E2,3.566913E1,5.5388554E1,6.9058704E0,1.761221E1,5.2061714E1,1.8345459E2,2.3914568E0,3.7419395E1,3.6041214E0,2.1255907E1,3.221551E1,1.2371079E2,1.8935545E1,4.6644006E0,7.6405473E0,8.348995E1,2.2495403E1,1.4650455E1,1.6880224E1,2.864573E2,8.149046E0,1.6765316E0,3.0005937E0,7.919769E0,1.38021E2,7.822163E0],"tree_param":{"num_deleted":"0","num_feature":"10","num_nodes":"125","size_leaf_vector":"1"}},{"base_weights":[-2.6400557E-3,2.2346206E-1,-4.4311246E-1,4.0229198E-1,-2.0837513E-1,-2.5340638E-1,-7.502476E-1,5.489435E-1,1.1617333E-1,-9.8921984E-2,-6.0828763E-1,-1.06511064E-1,-6.984082E-1,-6.340896E-1,-9.8395824E-1,6.7799723E-1,2.8350306E-1,2.4058321E-1,-2.0173348E-1,6.8153165E-2,-3.3548567E-1,-1.13259E-1,-7.282682E-1,4.8901007E-1,-1.5936524E-1,-7.321997E-2,-7.4159575E-1,-4.7516966E-1,-8.772068E-1,-8.6223626E-1,-1.0620323E0,7.227573E-1,2.1126953E-1,5.800808E-1,1.5509552E-1,7.620214E-1,1.7577702E-1,3.683983E-2,-2.99339E-1,1.7263632E-1,-2.37264E-1,-2.590588E-1,-7.499496E-1,4.1509515E-1,-3.1676105E-1,-5.8979565E-1,-9.205575E-1,5.7979774E-1,-1.5309422E-1,-4.2463895E-2,-4.0505162E-1,1.221093E-1,-9.0277797E-1,-6.717246E-1,-1.1007366E0,-1.5874934E-1,-5.524414E-1,-5.8164E-1,-9.536821E-1,-8.8526124E-1,9.61956E-2,-4.3852413E-1,-1.1128788E0,7.593494E-2,2.2557985E-2,6.7065895E-2,2.1172024E-3,1.010366E-1,4.8230134E-2,7.523269E-2,9.888289E-3,9.669371E-2,4.2460512E-2,2.5951037E-2,-1.723635E-2,2.557841E-2,-7.1338326E-2,-2.350339E-2,-7.2568074E-2,2.357864E-2,-1.892727E-2,2.9663911E-2,-3.6653664E-2,2.0219697E-2,-3.4869395E-2,4.5833614E-2,-8.131366E-2,-4.6375416E-2,8.6348884E-2,1.574136E-2,-5.2493345E-2,-9.837634E-3,-7.268607E-2,2.676782E-2,-9.8763786E-2,6.580121E-2,-2.0590164E-2,-6.718498E-2,5.023864E-2,8.960447E-3,-2.4491413E-2,-8.0037884E-2,-2.9348705E-2,-8.3579E-2,3.8079083E-2,-1.0443288E-1,-2.2119883E-2,-5.6752007E-2,-8.802597E-2,-3.2056957E-2,-1.1298169E-1,5.416313E-2,-2.7766634E-2,-6.723849E-2,-3.4032714E-2,-1.9298352E-2,-7.918831E-2,-1.029104E-1,-7.0692115E-2,-9.887197E-2,-6.3052386E-2,-8.6359575E-2,1.2135966E-1,2.522195E-2,-8.322404E-2,-1.1303957E-1,-6.661857E-2],"categories":[],"categories_nodes":[],"categories_segments":[],"categories_sizes":[],"default_left":[0,0,0,0,0,0,0,0,0,0,0,0,0,0,0,0,0,0,0,0,0,0,0,0,0,0,0,0,0,0,0,0,0,0,0,0,0,0,0,0,0,0,0,0,0,0,0,0,0,0,0,0,0,0,0,0,0,0,0,0,0,0,0,0,0,0,0,0,0,0,0,0,0,0,0,0,0,0,0,0,0,0,0,0,0,0,0,0,0,0,0,0,0,0,0,0,0,0,0,0,0,0,0,0,0,0,0,0,0,0,0,0,0,0,0,0,0,0,0,0,0,0,0,0,0,0,0],"id":12,"left_children":[1,3,5,7,9,11,13,15,17,19,21,23,25,27,29,31,33,35,37,39,41,43,45,47,49,51,53,55,57,59,61,63,65,67,69,71,73,75,77,79,81,83,85,87,89,91,93,95,97,99,101,103,105,107,109,111,113,115,117,119,121,123,125,-1,-1,-1,-1,-1,-1,-1,-1,-1,-1,-1,-1,-1,-1,-1,-1,-1,-1,-1,-1,-1,-1,-1,-1,-1,-1,-1,-1,-1,-1,-1,-1,-1,-1,-1,-1,-1,-1,-1,-1,-1,-1,-1,-1,-1,-1,-1,-1,-1,-1,-1,-1,-1,-1,-1,-1,-1,-1,-1,-1,-1,-1,-1,-1],"loss_changes":[6.327953E2,3.243271E2,1.253858E2,1.245336E2,5.3788166E1,8.711606E1,2.1702393E1,6.705017E1,3.98966E1,3.824465E1,1.5606667E1,3.1679016E1,8.878632E0,2.0917313E1,1.6618958E0,2.7424438E1,2.4430302E1,2.4351715E1,6.622574E0,1.8153622E1,1.24905815E1,5.799723E0,5.1135864E0,4.8741055E0,2.6489264E1,3.7540166E0,7.0234985E0,8.129883E0,4.352234E0,2.5414047E0,4.613861E0,2.173529E1,1.0197279E1,7.682312E0,1.5056155E1,5.1069374E0,1.887015E1,1.3869231E1,5.3565445E0,9.723506E0,1.0123521E1,1.4112631E1,5.092457E0,6.3475904E0,3.8953917E0,8.43454E0,7.211113E0,4.5679836E0,4.0642548E0,1.6771814E1,1.2883163E1,5.046709E0,1.9397402E-1,5.183777E0,7.4536896E-1,5.761422E0,6.6333847E0,3.7029324E0,2.4531708E0,2.2437592E0,4.815857E0,3.9586346E0,4.0612793E-1,0E0,0E0,0E0,0E0,0E0,0E0,0E0,0E0,0E0,0E0,0E0,0E0,0E0,0E0,0E0,0E0,0E0,0E0,0E0,0E0,0E0,0E0,0E0,0E0,0E0,0E0,0E0,0E0,0E0,0E0,0E0,0E0,0E0,0E0,0E0,0E0,0E0,0E0,0E0,0E0,0E0,0E0,0E0,0E0,0E0,0E0,0E0,0E0,0E0,0E0,0E0,0E0,0E0,0E0,0E0,0E0,0E0,0E0,0E0,0E0,0E0,0E0,0E0,0E0],"parents":[2147483647,0,0,1,1,2,2,3,3,4,4,5,5,6,6,7,7,8,8,9,9,10,10,11,11,12,12,13,13,14,14,15,15,16,16,17,17,18,18,19,19,20,20,21,21,22,22,23,23,24,24,25,25,26,26,27,27,28,28,29,29,30,30,31,31,32,32,33,33,34,34,35,35,36,36,37,37,38,38,39,39,40,40,41,41,42,42,43,43,44,44,45,45,46,46,47,47,48,48,49,49,50,50,51,51,52,52,53,53,54,54,55,55,56,56,57,57,58,58,59,59,60,60,61,61,62,62],"right_children":[2,4,6,8,10,12,14,16,18,20,22,24,26,28,30,32,34,36,38,40,42,44,46,48,50,